9996 32
. 0.010179913 -7.5184245e-05 0.057876367 0.028001621 -0.06087805 -0.014897812 -0.027990948 -0.015926465 -0.0095926495 0.006693383 0.0029804 0.022616347 0.090236746 0.014763183 -0.030884786 -0.034462303 0.036320984 0.072486155 0.035677336 0.026035583 -0.08378154 0.018439723 0.026711905 -0.10847469 0.07772287 0.020332227 0.011856047 0.013060511 -0.036963426 0.0720957 -0.093466744 -0.010630598
영화 0.091290876 -0.033092633 0.05503193 0.06881142 0.007790547 0.041193467 -0.08296472 0.00030795496 0.014566804 -0.016776813 -0.020664917 -0.004921829 0.08500337 -0.19427268 -0.020948822 0.041378364 0.021252377 0.008499531 0.039138842 -0.05452104 -0.045676526 -0.0034226084 -0.0052923714 0.086922795 0.06459326 -3.4797144e-05 -0.06603585 0.00037601392 -0.034234025 0.0039225696 -0.051443752 0.038425136
다 0.069182776 -0.0564574 0.08174355 0.019070651 -0.09837111 -0.012293967 -0.027391369 -0.051472116 0.032957196 -0.007966191 0.01332145 0.008347926 0.11788723 -0.067351006 -0.047871914 0.03874893 0.056194752 0.11625066 0.032584928 -0.03893855 -0.033653185 0.04196032 0.002398957 -0.004995477 0.029758222 0.009315747 -0.07264322 0.014085522 -0.09213331 0.021107255 -0.14248998 0.01680082
고 -0.017700022 -0.065780304 0.055003215 0.014619536 -0.056852594 0.06663226 -0.07117658 -0.0084500965 -0.035162166 0.05108193 0.047287647 0.0452343 0.106926456 -0.03471556 -0.019911045 0.04109524 0.064981304 0.06500846 0.01894272 0.03717967 -0.014909337 -0.08392629 -0.075345434 -0.01868968 0.030785367 0.007847788 -0.058169298 0.009288519 -0.04536219 0.016935684 0.009029828 0.058960475
하 0.016550615 0.07126217 -2.5558984e-07 -0.052494563 -0.012092925 -0.017477933 0.004754534 0.041414347 -0.0128579475 0.019314064 -0.05033452 0.051162194 0.01992629 -0.06780887 0.013957915 -0.024579735 -0.031733774 0.026720423 -0.039558113 -0.06275459 -0.0028009478 0.012914634 -0.010990971 -0.04606899 0.021558467 -0.014217068 0.006379144 -0.05495754 0.04921097 -0.009529653 0.028245445 0.01131757
을 -0.0034889318 -0.018153524 0.049874406 -0.03939487 -0.03034103 -0.028671088 -0.013663598 0.05430327 0.027557619 -6.0828923e-05 -0.036783047 -0.033895656 -0.028449778 -0.038510825 -0.0016873706 0.066876724 0.008628917 -0.022367008 0.058065016 -0.0019530427 0.0019117682 -0.016323995 0.013644152 -0.020558776 0.00039405143 -0.011861363 0.011770832 0.041066345 0.06336999 0.03203555 -0.0108918715 -0.0041823266
보 -0.059545714 0.04885443 0.063946426 0.063872375 -0.008121473 0.055997763 0.003415178 -0.025824703 -0.033838615 -0.037718553 0.014265587 0.026190706 0.012680551 -0.0033891376 -0.05041958 -0.009550986 0.024504308 -0.060749624 -0.05051724 0.029317437 -0.027534967 -0.05558656 0.011281159 0.01595301 0.021100273 0.08954864 -0.020382317 0.003052034 -0.046095062 -0.008734037 -0.007938286 -0.020469759
.. 0.0020468065 0.049692262 -0.03295219 -0.033462882 -0.1413107 -0.008327014 0.015868185 0.0075367824 0.062968075 -0.038074553 0.02726038 0.03945344 0.033446465 0.018542284 -0.09447634 -0.008160598 0.012004032 0.046388593 -0.0135647105 0.007991399 -0.02048228 0.055658262 0.05531431 -0.012105042 0.022429481 0.032617584 0.00027445046 -0.021131413 0.010424102 0.050430533 -0.035953958 -0.019200563
게 0.044587307 -0.06931274 0.03889504 0.066813014 0.015991768 0.051147286 -0.02336825 0.01787274 -0.029430328 0.01573334 0.08649864 -0.01608278 0.012333745 -0.19403033 0.0021727935 0.025771108 0.073906 -0.0044041355 0.030367928 0.014360394 -0.016599754 -0.027731396 -0.03394973 0.012172449 -1.3404846e-05 -0.0124767395 -0.11632678 0.018860232 0.036894374 -0.058601145 -0.07578573 0.007741107
, 0.033464108 0.013484982 -0.01806445 -0.033292685 -0.044697974 0.0034676217 -0.0043563186 -0.03621087 0.035834856 -0.0027473944 0.0006505707 -0.039264932 0.055355076 -0.012809937 -0.06605133 0.035209596 -0.018983988 0.039858133 -0.026328085 -0.029046316 -0.0064237625 0.011149048 0.0026285897 -0.054275464 0.0021470222 -0.01355567 -0.049232494 -0.022732187 0.07080812 -0.012228728 -0.053633887 0.020750662
! -0.015300459 -0.08631804 0.13911778 0.11932059 -0.030331729 0.045617774 -0.044465486 0.02540118 -0.07514734 -0.022536349 0.06984118 -0.032356013 0.030728215 -0.066888094 -0.010718804 -0.03330648 0.005220148 0.01027309 0.039985392 0.067954965 -0.083067566 0.0021920283 -0.0809023 0.11550334 0.08328794 -0.003302619 -0.068685375 0.050389055 -0.046824418 -0.009885775 -0.04379071 -0.012046324
지 0.030051658 0.014345026 -0.11974827 -0.10529952 0.18295255 0.00258041 -0.041726384 0.010352411 0.0026215985 0.021569418 -0.07492491 -0.008369047 -0.13765489 -0.068386294 0.064220026 0.030002655 -0.06629596 -0.012575287 -0.021878548 -0.051291812 -0.010766875 0.06769111 0.069394544 -0.059759174 -0.09990863 0.05575047 0.028108468 -0.04935904 0.0879786 -0.07291079 0.07292924 0.01487506
있 -0.0020389326 -0.04663181 0.066267334 0.0046691704 0.056661423 0.044077087 -0.028567782 0.015916284 -0.050165176 -0.044119585 0.101807326 -0.09310251 -0.064177796 -0.07471398 0.027806874 0.0040714196 0.079103954 0.008298947 0.03756285 -0.0047924463 0.052712284 -0.07360922 -0.12296899 0.04652441 -0.044810187 0.014528824 -0.043293785 0.05917268 0.005213339 -0.06525232 -0.088095486 0.009302386
없 -0.086100124 0.057790875 -0.29346487 -0.122245334 0.033403005 -0.13853526 0.13646834 0.1445913 0.022076394 0.08995356 -0.114959784 0.10785781 0.01874473 0.21416844 -0.014639984 -0.13784033 -0.11964166 -0.10215292 -0.042092104 -0.12416596 0.00037919826 0.21336715 0.09670837 -0.14745872 -0.111602284 -0.01764063 0.19006597 -0.11625061 0.1330414 0.009391638 0.36060187 0.017105509
? -0.048118167 0.07581323 -0.07689083 -0.0311362 -0.059688136 -0.10168517 0.085962765 -0.0029295557 0.083420426 0.037743676 -0.035686236 0.050361764 0.034942325 0.06377434 -0.03529584 -0.06828022 -0.09097169 0.062542364 -0.031192556 -0.035723597 -0.06278897 0.113315746 0.06802437 -0.11544448 -0.07460654 -0.016293343 0.11327899 -0.12507144 0.05413755 0.0006347938 0.048017725 0.004817974
좋 0.05574868 -0.05409895 0.19741677 0.13580988 0.0736062 0.1337748 -0.16152824 -0.06427229 -0.031649653 -0.035245005 0.046425804 -0.15730071 0.033800658 -0.28241676 0.06658611 0.10676953 0.10166952 0.060656916 -0.09013855 0.07729049 -0.006591837 -0.13659081 -0.1279123 0.067856066 0.018174728 0.026722074 -0.062570155 0.050114837 -0.19562596 -0.018734766 -0.2207707 -0.07651691
나 -0.060543112 -0.024413535 -0.017681746 -0.03910828 -0.006859059 0.08310744 0.03462582 0.017105049 -0.026489785 -0.02466938 0.058813732 -0.03113593 -0.1141136 0.027524214 -0.067393966 -0.008943616 0.025894381 0.048016973 -0.03163742 0.01161028 0.0070182574 -0.051415864 -0.043158323 -0.07767784 -0.012312675 0.015475224 0.02357637 -0.016228888 0.023825042 0.010470401 0.021397218 0.04521333
었 0.027649911 -0.022918928 0.14490221 0.033412457 -0.050277233 0.028983908 -0.102838255 -0.0349586 -0.02542635 -0.079260014 -0.021555752 0.059044085 0.028944328 -0.005429714 0.02303986 0.0948408 0.028392207 -0.06959039 -0.0013051443 0.0039171097 0.0008163364 -0.04099943 -0.0031738896 0.104397155 0.005377708 0.018043976 -0.042837378 0.036845636 0.016470324 -0.0124887405 -0.042985003 -0.034888048
만 -0.0110163465 0.0866384 -0.011099781 -0.081165805 -0.055113725 -0.047285628 0.039367367 0.019514214 0.073656105 0.040877577 -0.055619664 0.07590792 0.016221255 -0.025185276 -0.108922094 -0.042700775 -0.075888805 -0.011790157 0.0101165185 -0.09332867 -0.0457678 0.08029085 0.017643275 0.051071707 0.060020883 -0.063235454 0.04474606 0.06610001 0.06786894 0.05536829 -0.04870191 0.00549682
는데 0.028717857 -0.0661977 0.0015445888 -0.023974285 0.054283414 0.07658307 -0.021855645 -0.056815337 -0.059346955 -0.10171079 0.020811424 -0.020082245 -0.17039159 0.11146163 0.007866084 -0.024711384 0.08895309 -0.021198582 -0.047138352 -0.04127359 0.058918335 -0.06134562 0.036879305 -0.15742294 -0.0051367236 0.08883917 -0.0030202058 -0.005583249 0.036480047 0.0005170254 0.08799166 -0.015412551
너무 0.019335836 0.04076319 -0.030672042 0.00693837 -0.13307029 0.03972562 -0.07312492 0.079089046 0.0010721871 0.0055707945 -0.05252363 -0.095906794 0.15501243 0.25728947 0.06598926 0.039277866 0.03542783 -0.016689813 -0.0037918114 0.13250314 -0.020556303 0.09328926 0.09367517 -0.008954235 -0.05847183 -0.06807042 0.034863785 -0.1579004 -0.02612314 0.059684254 0.12875429 -0.14699852
봤 0.07574168 -0.054183416 -0.02894874 -0.100030586 0.024128465 0.050008595 -0.07357737 -0.023834059 -0.041152507 0.061955135 -0.06061596 -0.08935432 0.046629254 -0.005391246 0.0015740991 -0.0120146945 0.024826428 0.033690725 0.01295154 0.023041116 0.047994252 0.03098956 0.018825987 0.04526846 -0.073680446 0.047595277 0.010362849 0.05597205 0.011617176 0.00491007 -0.089633785 0.00069716375
적 0.02245326 -0.037580147 0.016561141 -0.007266167 -0.016865091 -0.07396032 -0.03964357 0.028835814 0.005954994 0.04464877 0.002220741 0.03484832 0.0013475248 -0.0845718 0.0040088245 -0.008601892 0.03877087 0.045371555 0.06197809 0.029541152 0.01874748 -0.02966083 -0.041995626 0.04232107 -0.04129702 -0.0031090325 0.019525887 0.04133646 -0.0007856929 -0.020360945 -0.13136709 0.030083394
안 -0.02932618 0.022440238 -0.12665536 -0.098722816 0.05723557 -0.16618621 0.23694204 -0.021616695 0.18477966 0.07671067 -0.08455302 0.20786226 -0.022392796 0.08189143 -0.09282698 -0.12068719 -0.14198202 0.034666125 0.063891165 -0.18746531 -0.09801575 0.15285832 0.13491857 0.01596938 0.0045939665 0.0009591308 0.12124012 0.04922755 0.13121021 -0.025774023 0.17099789 0.11185684
정말 0.06375039 -0.039167274 0.0049556047 0.019523716 -0.037579518 0.048203725 -0.045988254 -0.08589238 -0.07234042 -0.070389606 0.0508875 -0.06573753 0.035357267 0.14800917 0.033085942 0.074037634 0.002128299 0.0056211026 -0.029124355 0.07722408 0.014231824 0.02715663 0.029105628 -0.080016725 -0.004086444 0.06502119 -0.01602375 -0.027246656 0.04738268 0.015583476 -0.026312672 -0.103963025
로 -0.03682083 -0.0456222 0.016547866 0.04574922 0.010207215 0.048158944 -0.018642629 0.07001288 0.037473857 0.034199163 0.02478095 -0.051298227 -0.049337234 0.039900452 -0.051371004 0.0008690951 -0.023373162 0.017646853 0.03744343 -0.06873373 -0.020192591 -0.010439116 0.055169523 -0.02312728 0.009605851 0.03226492 0.017723097 -0.016727682 0.03985791 -0.0013809411 -0.02495329 0.006046285
음 0.0982734 -0.03806165 0.08824283 -0.0009787494 -0.045809172 0.011009502 -0.028647728 -0.027240727 0.018730035 0.02888938 -0.046104506 0.042567242 0.117837414 -0.118650496 0.0476194 0.010769752 -0.024280762 0.0970843 0.027470281 -0.004769018 -0.06255161 -0.023843676 -0.032358818 0.10827653 0.07894539 -0.09992249 0.022835052 0.051836994 -0.059172392 -0.023491723 -0.07424639 -0.06409261
것 0.03104359 -0.030782852 -0.013375717 0.009689306 0.038995214 -0.010645671 -0.03738605 -0.03293074 -0.0006170926 0.017503176 -0.017952157 0.00078236015 0.015409341 0.057165194 0.026086938 -0.004159309 -0.0037746262 0.01841006 0.007782186 0.012279418 -0.040427826 0.026209641 0.019913701 -0.06942672 -0.015206615 -0.04976649 -0.02388912 -0.030559447 -0.0061905826 -0.061591912 0.02110148 -0.019118397
아 0.027410757 0.0045614527 -0.01869475 0.051999595 0.04704607 0.0127397515 -0.009738993 -0.02497882 -0.01259315 -0.038197707 -0.03203875 0.06454742 -0.021577032 -0.08786948 -0.015291098 -0.012621694 0.026656158 0.016754787 0.042986184 -0.06459898 0.013929991 -0.01888681 0.06251296 -0.0101906415 -0.0041650278 0.010522844 -0.06895974 -0.027386433 -0.025212588 0.0095171705 0.004857578 0.006928292
네요 0.020467777 -0.028186115 0.1359518 0.051385377 -0.067386 0.039250866 -0.024620447 -0.035242982 -0.0054660523 -0.011770779 0.01778736 -0.0038733128 0.08539266 -0.07400612 -0.015900986 0.07131128 -0.008954761 0.0054120165 0.056084264 0.015183245 -0.09923845 -0.04575112 -0.13423786 0.10325296 0.029745791 -0.036420003 -0.023434969 0.029053815 -0.13371424 -0.069413066 -0.10846062 -0.04277308
재밌 0.13641253 -0.19744162 0.31083876 0.1681343 0.017482376 0.2705391 -0.18748716 -0.18968783 -0.09399663 -0.19659773 0.28524745 -0.2445996 -0.05967083 -0.3338186 0.09503084 0.10215188 0.12862709 0.10416015 -0.15260652 0.12964459 -0.0065423315 -0.16262574 -0.15258352 0.1419567 0.119953096 0.05515303 -0.15564361 0.113505416 -0.155394 -0.08806273 -0.32768476 -0.17828973
어 -0.028340949 0.02753396 0.073752254 -0.013038268 -0.04409952 -0.026858527 -0.04778566 -0.00035515075 -0.060535043 0.040628526 -0.018616762 -0.008110519 0.106016405 -0.025186982 -0.04304891 0.057510916 0.036572415 0.012240984 0.0007386389 0.013303728 0.009171956 -0.019649018 -0.010081798 -0.078269914 0.0014939694 -0.02202385 -0.044562872 0.0042509343 0.047962837 -0.051848114 0.00074144715 0.01393849
같 0.057298817 0.01944709 -0.006132924 0.03605129 -0.022453813 -0.09054811 -0.019480752 0.023315705 -0.03849201 -0.03659699 -0.03370509 0.03279172 0.07086769 0.049492072 0.018761948 0.018308055 -0.012634209 -0.012811797 0.018701755 0.030289205 -0.008968752 0.004968271 0.030094484 0.05892063 -0.024449585 0.0053372504 0.025924504 0.024514616 -0.021064302 -0.06877563 -0.05003833 0.0373946
점 0.026633613 -0.03592613 0.20221257 0.10555505 -0.10586314 0.018969543 0.0154257715 0.02115468 0.101621345 -0.033994265 -0.036819246 0.08628157 0.16723737 -0.13665083 -0.04524129 -0.039056145 0.050369445 0.075873904 0.062401034 -0.011169829 -0.049884833 -0.0087610325 -0.006354302 0.21067746 0.2127293 -0.2049705 -0.07058595 0.055767085 -0.10338771 0.018151952 -0.079478785 0.01262286
지만 -0.08651601 -0.107721984 -0.116490014 -0.12348838 0.17631206 0.029470587 0.00027731786 -0.0486854 -0.10698379 -0.07715366 -0.045712344 -0.16940823 -0.30648583 0.20719603 0.0005012843 -0.02228977 0.06723652 0.007838989 -0.062678605 -0.04075048 0.04495374 0.0005004335 0.023479786 -0.29290202 -0.095312856 0.08715058 0.016593795 -0.032335978 0.20699953 -0.12850448 0.17809093 0.036247466
진짜 0.03613143 0.014704182 0.08142425 0.06387318 -0.15521502 -0.016989492 -0.11648314 -0.051287692 -0.07011321 -0.07030888 -0.010087732 -0.055135388 0.0847677 0.07644539 -0.014999143 0.019767042 0.1046269 0.08288388 0.029338492 0.049230367 0.057907898 0.027659398 0.1017816 -0.10145517 0.014345918 -0.0025731318 -0.039532825 -0.001179234 -0.0063813464 0.04982245 -0.097543545 -0.07076157
했 0.015236962 -0.0590196 0.04384884 0.05413841 0.051394444 -0.024121234 0.00757299 0.0010060738 -0.033422314 0.00042302365 -0.023155948 0.01574698 0.0077710617 -0.017453898 0.049836762 0.0149450395 -0.019637538 0.019455666 -0.015939122 0.00665887 0.0015027102 0.018214416 0.009680151 0.10397571 -0.004333181 0.03283111 0.019546177 -0.00401079 0.008619703 -0.033222467 -0.026627146 0.0064093904
에서 -0.013260516 -0.018910808 -0.07124848 0.0034147205 0.026104178 -0.11416876 -0.0067370613 0.023102315 0.007103219 -0.052144986 -0.030063547 0.019885555 -0.10970438 -0.02223951 -0.018060302 0.045653637 -0.020993179 0.03765023 0.04600792 0.05555638 0.015904095 0.025100086 0.028814295 -0.06777757 -0.04590078 0.03298473 -0.015234653 -0.01583445 0.033428367 -0.052220594 0.0688344 0.0018867147
기 -0.010779145 -0.0035322183 -0.021770498 -0.0022556018 -0.064270414 -0.074828945 -0.026549608 0.04431174 0.015710741 0.010740649 -0.01812815 0.048971318 0.09861723 -0.019541232 0.00039315058 -0.046473708 0.002098329 -0.027741319 0.020041516 -0.045019705 -0.055529483 0.021884054 0.03317858 0.0032231472 0.08469923 -0.0586438 0.038111098 0.011625077 -0.025593802 0.0008728162 -0.058172923 0.010147727
네 0.04735418 0.018811638 0.045017194 -0.0567486 -0.06740684 -0.017747078 0.03692334 -0.0006056593 0.07330519 -0.02992094 -0.062342063 0.044191115 0.04241849 -0.07244704 0.031961814 0.025948638 -0.0048557566 0.08023897 -0.022542896 -0.08838021 -0.058011893 0.0011303559 0.101124905 -0.03933815 0.031360857 -0.043757122 0.035328954 0.034752518 -0.0521308 -0.019800335 -0.08914551 0.01634701
않 -0.0973072 -0.16054402 -0.15617111 -0.12955078 0.2738168 -0.006940478 0.0088587515 0.0024047599 -0.00524363 -0.08349153 -0.08479546 -0.04762114 -0.2488615 0.09723484 -0.03140625 0.057354372 -0.045587417 -0.042400625 0.01065101 -0.14566293 -0.02776768 -0.011873645 0.07797615 -0.28752747 -0.18590896 0.09720475 0.06676857 -0.11521632 0.19429155 -0.11177057 0.17315626 0.091218784
거 -0.03926859 0.049984813 -0.021047454 -0.016106453 -0.026681492 -0.03754107 0.027906757 0.020518132 0.053952616 0.13719977 -0.0002620116 0.02089279 0.0138973445 -0.07988861 -0.023430826 -0.023393743 -0.05285359 -0.104750246 -0.01757772 -0.0046833917 -0.096381575 0.04199739 -0.04097665 -0.04607291 -0.0071778637 -0.03768012 -0.0074399863 -0.060624 -0.047294106 0.0361205 -0.011273265 0.038367093
았 -0.017175116 -0.029228292 0.048801295 0.022279402 -0.027096586 0.05191498 -0.094931334 -0.0012976197 -0.018982776 -0.055154413 0.022584395 0.0064503383 -0.00525447 -0.05042963 0.030965563 0.09002065 0.03654696 -0.060381394 0.05528768 -0.035726227 -0.013943385 -0.06961141 -0.020645773 0.037356403 -0.059445024 -0.012542161 0.010050567 0.0035541155 0.03943654 0.0142974965 -0.061340615 0.0005098826
수 0.10887599 -0.02689161 0.052284464 -0.09310275 0.05170065 -0.039558005 0.006977468 -0.050880507 -0.011227858 -0.0052363346 0.054397635 0.07880295 -0.062668934 -0.15038332 0.071881555 0.0466638 0.010428939 -0.00039392186 0.014451781 -0.022552568 0.033123586 -0.077646345 -0.05088364 0.08302488 0.046229858 0.0020887002 0.00048290152 0.116461724 0.028854104 -0.065502696 -0.09771162 -0.020158337
되 0.082402684 -0.055960674 0.057965335 -0.06925605 0.010733513 0.024690734 -0.06449478 0.0011215382 -0.013876707 0.024945641 -0.032480024 0.009477767 0.013189574 0.01010836 0.04711516 -0.005384071 0.049869016 0.03722216 -0.026055941 0.005616188 0.053595807 0.017796943 0.003717733 -0.0018298021 0.0600768 -0.043569755 -0.062866084 -0.023658514 -0.048833366 -0.043380998 -0.07545606 -0.036758237
면 -0.051426686 -0.016729578 -0.09346192 0.019799622 0.14979947 -0.012900756 0.03698038 0.022889165 -0.04386565 0.060500976 -0.0052800803 0.02972954 -0.05129883 -0.05385998 -0.045036502 0.008883274 -0.073962666 0.015406467 0.05681018 -0.071842805 -0.04596349 0.0006513868 0.07485221 -0.06394597 0.0023121743 -0.004229881 0.020754522 -0.010114998 0.057515495 -0.08638032 0.084611736 0.0031991594
ㅋㅋ -0.03981147 -0.047326762 -0.025250737 0.09540509 0.027789269 0.00446994 0.02352606 0.03484958 0.014640025 0.045933314 0.07650422 -0.06743968 -0.017032903 0.0069452315 0.0022603353 0.02024935 0.0077104075 -0.016474014 0.023488736 0.034662135 0.0123034 -0.032548737 -0.020748857 0.18676932 0.039900016 0.023692144 -0.06337395 0.008669253 -0.014976155 0.008241568 0.017057167 0.021761209
말 -0.052382957 -0.054300576 0.01965436 0.04698422 0.037411716 0.06817244 -0.06164995 -0.0022525527 0.030261151 -0.04997506 -0.061753 -0.042882215 -0.066478506 0.0672408 -0.056669086 0.05083697 0.037968796 0.08289864 0.02576733 -0.033686966 -0.0019456912 -0.01125479 -0.015033989 -0.07443153 -0.0009783165 0.029734306 -0.01146251 0.04197373 0.06125752 0.036820184 -0.046021808 0.008130058
연기 0.049008913 0.010567037 0.049035776 0.06475003 0.0065728696 -0.003403511 -0.07186239 -0.020825502 -0.050239824 0.02524825 0.107900575 -0.042553682 0.034647416 -0.06144597 0.03735545 0.047413886 0.02897989 0.010359094 -0.077887274 0.057881974 0.0056415815 -0.070997104 -0.030384993 0.12371844 0.046380598 0.024460746 -0.003102465 0.015635429 -0.11092134 -0.013884161 -0.09108158 -0.09227858
인 0.025992127 -0.008939444 0.03315452 0.00852435 -0.027705742 -0.03884077 0.028072812 -0.018544937 -0.032829013 0.054574374 0.06324131 -0.011584296 0.062832646 -0.0008169691 -0.018117586 0.02047904 0.034465168 0.025523454 -0.026745968 0.05798219 -0.008589696 -0.029606773 -0.0015686823 0.09121573 0.06958013 0.06490872 0.05836751 0.015315403 -0.026809478 -0.0074363756 -0.02794006 0.037521936
주 0.011545033 0.070737585 0.030636642 0.044434853 0.0014052719 0.008319716 -0.041333925 0.0039272383 -0.0027728619 0.02065972 -0.035792533 -0.05883187 0.061969753 -0.097332336 0.056757025 -0.03249398 0.08326934 -0.04425065 -0.043006197 0.011183504 0.04158595 0.030405408 -0.01040245 0.05320454 -0.048538152 -0.007936192 -0.060347438 -0.022971716 -0.059495255 0.042439543 0.021221833 -0.0391801
내 -0.039777216 0.027756548 0.02789139 0.012546193 0.001268632 0.058307208 -0.08133104 -0.088470586 -0.0017966181 -0.07856124 -0.046074703 -0.05151168 0.06624692 0.033770204 0.040409792 -0.010252522 -0.040337432 0.007148723 0.023920039 -0.057244815 -0.014970384 0.026422307 -0.024610667 -0.06549341 -0.048838638 0.0041763536 0.04322299 -0.053258236 0.05971587 -0.048148252 0.04121054 -0.023426374
최고 0.22320458 -0.11332874 0.3526039 0.13408338 0.05583137 0.19874857 -0.25259253 -0.30399922 -0.19637987 -0.3175324 0.09082701 -0.24140848 -0.02412582 -0.05236889 0.20271876 0.2652585 0.2744663 0.21005738 -0.28834707 0.22988941 0.22807987 -0.1678764 -0.24066791 -0.053795468 0.21108888 0.13894564 -0.107648045 0.13931489 -0.24580503 -0.14143266 -0.22817564 -0.29701576
~ 0.008675414 0.015483501 0.080331475 -0.021572469 -0.027551726 0.028107733 -0.034553062 -0.054690752 0.014358386 0.041418828 -0.001662896 0.018183727 -0.0077260085 0.049075235 0.058511652 -0.014065592 0.05421725 -0.03722447 0.0033474364 0.014158653 -0.044054728 -0.044338264 -0.13234739 0.086958885 -0.06931659 0.028101241 0.024767812 0.0119041065 -0.06522605 -0.012893666 -0.031483386 -0.035419058
평점 -0.018735483 -0.07231835 -0.08366394 -0.014922989 0.11395917 0.01027097 -0.02781413 0.027985856 0.07488712 0.010462951 0.09331184 -0.08815767 -0.19020778 -0.049677752 -0.06601466 -0.037990846 -0.06228964 0.033614602 -0.0050364286 0.036055606 -0.013534113 0.05712716 0.073713824 0.059241198 0.08702389 0.08350641 0.08908516 0.053620055 -0.07996994 -0.024353862 -0.070065506 -0.025501892
이런 -0.06855471 -0.034438405 0.02060214 -0.025599461 -0.06692658 0.026871588 -0.04799481 0.043975543 -0.041589286 -0.030922886 -0.00012797231 -0.034717154 -0.00879545 0.017039977 0.040785447 0.032401435 0.04367072 -0.009474013 0.04508287 -0.016808782 0.022406483 -0.020106833 -0.044177324 -0.07092756 -0.031694673 -0.06250289 -0.008877492 -0.07568412 0.04144854 0.061169643 0.01040489 0.05719503
던 -0.032891095 0.048208285 0.0113531705 0.022135053 -0.08488635 0.02045122 -0.029180571 -0.048209272 -0.01166682 0.021790281 0.05248781 0.012882575 -0.06677863 -0.027353156 -0.07461169 -0.046538927 -0.0035790587 -0.03297682 -0.0592617 0.029109424 0.013456365 -0.062687434 0.011036044 0.022359416 0.014152263 0.0642795 -0.0046989084 0.06098724 0.032853115 0.033812165 -0.07565395 0.0074473913
어요 0.07206066 -0.042887937 0.13277167 -0.0073533906 -0.13905255 0.018787334 -0.11456549 -0.091788985 0.07991204 -0.03431213 -0.064077735 0.045481376 0.26895517 -0.056749336 0.09189976 0.10590937 -0.044835307 0.025425311 -0.12030044 0.036918204 -0.006245039 0.043352637 -0.06940211 0.11046626 0.07690082 -0.1309077 0.049348097 0.06434863 -0.109194644 -0.058120355 -0.12356563 -0.10386249
할 -0.050417874 0.00827057 -0.006793114 0.014761497 0.05412739 0.0072254087 0.03822034 0.027208852 -0.017788997 -0.06681328 -0.009705377 -0.06531303 -0.032477487 0.08364958 0.024725286 -0.018520063 -0.07019421 0.040486507 0.011217028 -0.017212097 0.026163602 0.010337988 0.025727743 -0.07149873 0.0053178812 0.03804488 0.0058221617 -0.029528463 -0.0012632183 -0.05627714 -0.0050091757 0.013935632
왜 0.00026922586 -0.027254594 -0.051343445 0.030100212 0.031493492 -0.011305741 0.12382077 -0.03988093 0.12063441 -0.020415932 -0.046925906 -0.0076133953 -0.0012296538 -0.019826207 -0.09380559 -0.044505715 -0.012018942 0.04226116 0.09375938 -0.0788078 -0.14496608 0.053842835 0.060887277 0.06728345 0.116763346 -0.048085738 0.11625623 0.05036914 -0.005120529 0.05794818 -0.01787283 0.0034758442
겠 -0.039074328 0.054330625 -0.05183972 -0.11845055 -0.097024605 -0.068433814 0.019367466 0.07313485 0.01196191 0.09223965 -0.058813557 0.028358517 0.09202217 0.13599971 -0.0061143776 -0.019514516 -0.06683197 -0.027645927 0.038218442 -0.046016004 -0.037029162 0.054229584 0.10405851 -0.06935701 -0.037937637 -0.04438216 0.054984197 -0.06790778 0.025454573 0.048721444 0.05626232 0.047971424
1 -0.08748306 0.090078495 -0.05212745 -0.0510718 0.049453 -0.076248966 0.074903406 0.023477253 0.09572524 0.037483823 -0.08046614 0.020368565 -0.017480105 0.1180883 -0.22398503 -0.13415281 -0.16399746 -0.046387766 0.120073825 -0.17460136 -0.0938244 0.06885818 0.07199781 0.036768604 -0.09727728 0.000632776 0.050970796 0.008643726 0.21414843 0.030727835 0.06487309 0.20027311
스토리 0.010797193 0.005255936 -0.016932439 -0.028725002 -0.10095011 0.019615188 0.056046978 -0.0069103986 -0.016403558 0.080889 -0.11844196 0.052565143 0.12331337 0.05047456 -0.04795974 -0.010940071 -0.040324893 0.04604635 0.029760519 -0.011479047 -0.040374186 0.09286443 -0.029989472 0.014521036 0.0180682 -0.019551272 0.032123055 -0.0030532205 0.029948441 0.023219114 0.050779846 0.09515807
해 0.043354955 -0.020010952 0.021647187 -0.09613352 0.06872081 -0.026703585 -0.010697468 -0.079140835 0.051184416 -0.07925135 -0.006517054 0.04256374 -0.00489711 -0.063646056 0.0152848875 0.03767747 -0.022112519 -0.0033789359 -0.026687345 -0.052201062 -0.06889336 0.056357406 -0.002881672 -0.00012417826 -0.017898424 0.044697672 0.04713699 0.059443418 -0.042489666 -0.026461298 0.015165001 0.006036037
습니다 0.08284803 -0.026044587 0.14496525 0.054587677 -0.10200046 0.0787611 -0.052217044 -0.09685923 -0.012961984 -0.073862985 -0.011856176 0.04707513 0.091924034 -0.13696784 -0.019027317 0.08403569 0.058865607 0.14969069 0.017473636 0.064803995 -0.027670618 -0.05697329 -0.043446 0.07895917 -0.015477441 0.007084851 -0.049972054 0.042420488 -0.0623248 0.030052923 -0.20689614 -0.01696655
ㅋㅋㅋ 0.02926934 -0.026742507 0.047292255 -0.002623548 -0.03577063 0.03370445 -0.026107123 0.012328327 0.024340091 0.028780704 0.04746298 -0.040440835 0.037366413 -0.077612594 0.00852363 -0.050150786 -0.044057358 -0.022758318 0.037226554 -0.040791724 -0.013369011 -0.028137354 0.027937336 0.09272012 0.063705474 -0.02437518 -3.1994736e-05 -0.026819712 -0.00644136 0.040969368 0.0062913666 0.019411737
... -0.025453813 -0.00882983 0.03817534 -0.008739298 -0.05611168 -0.008838708 -0.017762259 0.04015504 -0.06739292 0.039166223 0.058130898 -0.023170982 0.042653553 0.096737534 -0.040180746 0.029049266 0.050965738 0.05107849 0.053081695 0.002578818 -0.052317105 -0.037524294 0.013003075 -0.061505683 0.054993775 -0.026381282 -0.021148488 -0.11505621 0.02204239 0.06893496 -0.02714201 0.044119116
드라마 0.06240681 0.00779252 0.041868303 0.024050618 0.022980975 -0.035913076 -0.00068305293 -0.01753857 0.02654757 0.040028617 0.004178749 0.008389367 0.0697237 -0.1664383 0.06809586 0.047946148 0.007433107 0.05848624 0.033703852 0.05475241 -0.0023017814 -0.043786604 -0.005596368 0.059267987 0.08039933 -0.1451349 -0.09989774 0.035253502 -0.1538892 -0.04783282 -0.045859158 -0.060435105
생각 0.064732894 -0.023819733 0.0953373 0.05975835 0.013292668 0.0053477036 0.015657058 -0.0863189 -0.007981946 -0.053461466 -0.034263156 0.05597837 -0.0025490008 -0.009829068 0.014390313 0.10046782 0.026493777 0.04784449 0.0155922845 0.027366268 0.06738011 -0.042240188 -0.017321344 0.08769981 0.077632844 0.050633844 -0.025085254 0.08580175 -0.032598827 -0.13132519 -0.0291192 -0.005769591
아니 -0.0974132 0.069729194 -0.15077306 -0.13104221 0.17939565 -0.083281405 0.058696475 0.023216581 0.07626098 0.02446477 -0.15966062 0.08520091 -0.15236586 0.19597481 -0.037221316 -0.08135078 -0.13592899 -0.08488942 -0.04082985 -0.042560734 0.040554423 0.18704139 0.125002 -0.243758 -0.121695 0.0042476663 0.15308015 -0.0061289137 0.1650427 -0.02351718 0.20050502 0.08422244
더 0.049811855 0.006238083 -0.040772457 -0.12504175 0.10065482 -0.10174933 0.007908027 -0.06748098 0.0303034 0.0020234738 -0.07167944 0.06314776 0.0039501362 -0.047663197 -0.055591833 0.024831513 -0.06108454 0.065830074 0.042874444 -0.060780875 -0.052584693 -0.0020795881 -0.027502744 0.06666672 0.0014912612 -0.027973708 0.0870258 0.09156661 0.03485544 -0.03163818 0.029469647 0.02471468
그 0.018185884 -0.034825087 0.07119898 0.030011525 0.021201275 0.025001794 -0.047445547 -0.04023473 -0.04871948 -0.05693929 0.036940735 -0.016530447 0.034072872 0.008105404 0.032918926 0.057039056 0.057407722 0.020246437 0.02073304 0.08489212 0.05205206 -0.035508014 -0.02293278 -0.05375689 0.07998568 0.03720291 -0.047577277 0.053381614 0.004679095 0.02272536 -0.007494093 -0.03573556
싶 0.056610372 0.011432559 0.04801398 0.020673394 0.0008847076 0.034013335 -0.056754015 -0.03132389 0.05695511 0.071012095 0.07184161 0.08084701 0.109029084 -0.12006869 -0.004999091 0.020034838 -0.018583938 -0.055960763 0.008163571 -0.031578608 -0.08966455 0.055441268 -0.09393935 0.087791525 -0.019889137 -0.07920424 0.021270342 -0.009423154 -0.0834376 0.054461785 -0.081207 0.0018762614
사람 0.017365597 -0.036893282 -0.014058891 0.035877008 0.19145593 -0.03574393 -0.0062459293 -0.042194385 0.018152812 0.0013482597 -0.029633537 -0.008261944 -0.054917626 -0.08123897 0.021584999 0.0037863187 -0.07033427 -0.05163342 -0.059805144 -0.090768665 -0.021622619 0.057128083 0.021144817 -0.033992097 -0.024758026 0.06197075 0.014364217 0.05220439 0.008779091 -0.13136566 0.02158107 -0.018730164
듯 0.022851951 -0.04579853 0.045893177 0.056165945 -0.008090648 0.044386376 0.016929246 -0.027262647 0.06804283 -0.041183334 -0.030080367 -0.067158185 -0.09518651 -0.08939605 -0.0145093165 0.050381754 -0.03757153 0.03712452 0.028449416 -0.0427024 -0.080679856 -0.034724437 0.06007896 -0.12653755 -0.009960239 0.01805471 -0.0013132083 0.029097008 0.028792534 0.021968018 -0.0981518 0.028318323
때 0.007366407 -0.04149545 0.048103552 0.015671058 0.06448669 0.018183501 0.00074002414 -0.070599444 0.008923198 -0.04419242 0.019773211 -0.018481666 -0.01977203 -0.063252516 0.059386004 -0.0015188843 0.052851487 0.017310314 -0.021346966 0.005765224 0.012578294 -0.013386444 -0.06906467 0.075967595 0.12615034 0.030734101 -0.028213136 0.020705186 0.031723443 -0.06584862 0.024402725 -0.070173405
감동 0.18235427 -0.08356276 0.1489436 0.13734575 0.045972846 0.09830947 -0.20878938 -0.10364468 -0.2333994 -0.05644689 0.07894914 -0.13660184 -0.0285629 -0.019881487 0.12616195 0.1151459 0.16787603 0.04865621 -0.14894558 0.16656768 0.14826263 -0.084732644 -0.047503814 0.03195537 0.03503122 0.128193 -0.13323733 0.009628831 -0.08527302 -0.069697045 0.0018490176 -0.10913243
함 -0.028343087 -0.00020506649 0.027387956 0.025214996 0.010296184 -0.010826899 -0.023186754 -0.020964406 0.001628278 -0.014680967 -0.0499732 0.009107358 -0.007822187 -0.0052447147 -0.002270295 -0.029856926 -0.010794178 0.027898628 0.0020098207 -0.044718817 -0.057006 0.052266188 0.095856205 -0.005457953 -0.056746967 -0.02111287 -0.0007834972 0.0070905825 -0.047721215 -0.026506564 0.01873994 -0.043503877
배우 0.03768742 0.02660587 0.016324406 -0.009330456 0.016512165 0.0056042555 0.019169217 -0.009624048 -0.04091706 0.02704416 0.12648153 -0.045213696 -0.023753798 -0.0025643208 -0.0773895 -0.043389738 -0.04493071 -0.02936651 -0.02475864 -0.02892796 -0.06195072 0.003715255 0.0369679 0.020088756 0.033953484 0.045106553 -0.0011989619 0.02023089 0.086384185 -0.022994233 0.0037166362 0.035273667
본 0.0045871553 -0.032430075 0.017644992 0.049077597 -0.02153561 0.009475121 0.038378906 -0.012275676 0.023979932 -0.051061977 0.02625554 -0.033522744 0.017843386 -0.017208448 0.017822638 -0.022577291 0.04722929 0.030967943 -0.04264034 0.07444188 0.05200206 0.030220922 0.036582112 0.02743879 0.05511823 0.066854134 -0.057820845 0.04867868 0.013642103 -0.010939555 -0.019738227 -0.09501501
까지 -0.0365939 -0.073422305 0.037663404 -0.044436514 0.06289978 0.05213024 -0.08383232 0.02869714 -0.029084481 0.019103121 0.04653485 -0.14139847 -0.059713714 -0.08930084 0.004334381 -0.0014373923 -0.08513013 0.011321648 0.02446917 -0.020409219 -0.017612603 0.024596425 0.012324255 -0.03789404 -0.026816014 -0.059792325 0.08292994 -0.0003341687 -0.068551004 -0.031993218 -0.06277354 -0.031943116
뭐 -0.07110914 0.09281428 -0.042072933 -0.06331607 0.004668587 -0.04864718 0.093190715 0.0479607 0.05457149 -0.00424015 -0.022644157 0.07208315 0.042853322 0.031240154 -0.073936656 -0.052821618 -0.03573701 -0.035481382 0.03791392 -0.10193533 -0.08094419 0.076161645 0.066988125 0.08972506 -0.04047775 0.0012307516 0.035464022 -0.041794688 0.07460367 0.010199663 0.10876211 0.05889392
알 -0.0171619 0.032595556 0.02861853 -0.0035546653 -0.028377114 -0.032293778 0.006175218 -0.009951815 0.016793616 0.038220204 -0.05659125 0.08243194 0.04122202 0.031316966 -0.014702416 -0.022892607 -0.029031748 0.025767287 -0.041471083 -0.006501931 0.042968918 -0.006797081 0.05567244 -0.0035242138 -0.024379393 -0.08207351 0.049851913 0.0021215002 0.08288166 0.010636757 0.094152346 0.0289314
만들 0.010315287 -0.024849134 0.044319253 -0.04552861 -0.10369607 0.0366529 -0.032099012 0.04454627 0.0047341967 0.02627438 -0.010738915 -0.117351405 0.056767024 0.04251892 0.011530054 0.040950816 0.07354378 -0.062352486 -0.035660625 0.012437962 0.018185189 0.04061829 0.03688675 0.052218214 -0.05348865 -0.01859817 -0.028517608 -0.09574055 0.013368528 0.08548062 0.022913823 -0.032402437
내용 -0.090005554 0.101427674 -0.0034394306 -0.067493476 -0.113678634 -0.027958896 0.0029486627 0.051981103 0.028991636 0.10646853 -0.076813 -0.048644695 0.06702328 0.124056034 -0.015549521 -0.033012375 -0.0014688256 0.010607091 0.08877546 0.020725373 -0.035754126 0.06651367 0.04003642 -0.10206651 -0.17801392 -0.12379155 -0.012276612 -0.1673311 -0.0124519095 0.1071739 0.08898909 0.09721013
볼 -0.0019306642 0.01374592 0.17840923 0.077241264 0.03314545 0.108969785 -0.17618616 -0.07803807 -0.054648817 -0.013284334 0.14147669 -0.014806072 0.056186344 -0.16629699 0.037656937 0.05880152 0.022302587 -0.09116352 -0.08606658 0.05181482 0.044823308 -0.09835326 -0.19467334 -0.107734755 -0.034997784 0.014787379 -0.062203202 0.011968193 -0.13997756 -0.041290592 -0.12335973 -0.04097147
감독 -0.06292594 0.0666417 -0.07186279 -0.063781105 -0.018205687 -0.04335689 0.04751568 0.047223106 0.069766566 0.10576923 -0.033679817 -0.081273206 0.082661375 0.008518038 -0.04193069 -0.09436749 -0.03662061 -0.059115186 0.045813054 0.02884301 -0.10989106 0.06961091 0.024239479 0.07215104 -0.03420265 -0.06879592 0.054123633 -0.11207695 -0.026524277 0.006307659 0.092417054 0.06150621
보다 0.020597689 0.004680237 -0.05742083 -0.08111417 0.040581718 -0.0023622331 -0.02100097 -0.06907341 -0.046191122 -0.11181728 -0.039253704 -0.0372889 -0.094886206 0.0996917 -0.014691494 0.02219465 0.039211255 0.10721943 0.0065903366 -0.012583657 0.072187535 0.0033226525 0.040375914 -0.093198925 -0.023970857 0.08717874 0.010473154 -0.022771982 0.05926668 -0.016827408 0.07842818 0.0129790325
라 -0.030051656 -0.07166312 0.08506829 -0.0024194764 -0.05056921 0.01992937 -0.05382913 -0.046000198 -0.038610436 -0.047922824 -0.022529842 -0.026421659 0.012439855 -0.088143356 -0.045406546 0.03368812 0.07554529 0.024601037 0.025538815 -0.065617375 0.012311602 0.016838342 0.008570394 -0.060923506 -0.008737086 0.05229116 -0.0042621884 0.0026767333 0.01673821 0.01727511 -0.057246555 0.014820711
그냥 -0.012908709 0.09338161 -0.03694734 -0.02565664 -0.1692909 0.012583794 0.022180874 0.04825734 0.030149855 0.071127065 -0.071299314 -0.059047148 0.04536092 0.10677252 0.01506861 -0.08782686 0.05257342 -0.014991766 -0.042783964 -0.00716282 -0.05922309 0.026272444 0.011663717 0.041272637 -0.08091876 0.00991739 -0.039389078 -0.17984213 0.051730976 0.113671504 -0.03766846 0.009602983
재미 -0.037082 0.0053786873 0.14532967 0.15058877 -0.12827833 0.13623987 -0.09115152 -0.024157299 -0.08445643 -0.051000535 -0.0019389605 -0.21978457 0.071849436 0.18949336 0.08373906 -0.022541653 0.112429634 -0.06709433 0.0024929207 0.08970633 0.03686609 -0.07610887 0.028364481 -0.04304984 -0.0740331 -0.06274558 -0.039891694 -0.11961811 -0.11650205 0.089859806 0.00089283974 -0.03624428
시간 -0.09572819 0.0669257 -0.062445182 -0.088549025 -0.038916856 -0.044023354 0.058682814 0.02760675 0.11135078 0.10240876 -0.057782143 0.0732112 0.027432878 0.048558325 -0.034710802 -0.0790697 -0.020470092 0.020003682 0.08650844 -0.057141233 -0.06380285 0.04767962 0.096228585 -0.014614816 -0.029253762 -0.034943167 0.03651783 -0.07870418 0.057687186 0.021753235 0.03864905 0.010340135
지루 -0.22879957 0.19922134 -0.2433059 -0.14404811 -0.048804175 -0.26658314 0.25799322 0.106272526 0.19555613 0.07748895 -0.31766248 0.19944988 0.091976 0.29773062 -0.27946234 -0.21027498 -0.30055317 -0.07433598 0.17821461 -0.331052 -0.15012461 0.23872308 0.34155563 -0.058116563 -0.17783244 -0.109062836 0.24779812 -0.10889529 0.29921287 0.14051995 0.3819157 0.23058084
중 0.12244186 0.03383695 -0.010954807 0.059867676 -0.0011495339 -0.032851547 -0.03471326 -0.016516939 -0.041772854 -0.024082188 0.001609073 -0.05082553 0.02279028 0.028196694 0.04605606 0.09326544 0.06774657 0.041948248 -0.049792822 0.060645916 0.12843515 -0.040908612 0.012150508 0.0033748816 0.06834574 0.038112972 -0.054549087 0.06921065 -0.008502482 -0.044790648 0.04277518 -0.047357325
재미있 0.05343209 -0.10082383 0.32809296 0.14000736 -0.05922258 0.22770636 -0.1653746 -0.13653484 -0.17327799 -0.09108502 0.14727704 -0.2301438 -0.004614487 -0.119311124 0.13822845 0.121988654 0.19396603 0.111311994 -0.10221279 0.10884503 0.102044284 -0.27641195 -0.2037409 0.05019688 0.079647206 0.05945349 -0.15213664 0.09872442 -0.1792584 -0.046611577 -0.3073526 -0.086100236
년 0.026827803 -0.00651385 0.065887995 0.062586725 -0.07306373 0.05521234 0.020894121 -0.0054623415 -0.011656551 -0.03913333 0.033073634 0.0071978746 0.020946473 -0.07605564 0.054395545 0.0489449 0.037064653 0.035428397 0.05333573 -0.027315572 -0.036018435 -0.047761362 -0.03934893 0.012639467 0.027884124 -0.038681503 0.002750104 0.026298381 -0.08600527 -0.031579927 -0.0580362 -0.07347531
10 0.04791745 -0.10214182 0.22007859 -0.07692439 0.06959048 0.111086495 -0.22213092 -0.05075725 -0.09111475 -0.099477544 0.12903251 -0.13803756 -0.18940976 -0.0544288 0.101191446 0.051471986 -0.010773465 -0.033607483 -0.322271 0.22275208 0.14146039 -0.10971883 -0.31491804 -0.3787798 -0.034947857 0.23923874 -0.11454002 0.0081292465 -0.13326344 -0.05678885 -0.3337423 -0.14122744
였 0.05210783 -0.088705316 0.05597391 0.0942467 -0.001229758 0.02709231 -0.06461335 -0.0028231977 -0.065709315 -0.027340876 0.040128347 -0.03189909 0.0052880957 -0.06926589 0.006573551 0.060012933 0.09854586 0.06308744 -0.011545959 -0.013381456 0.017129164 -0.0019796984 -0.040239837 0.076247476 0.101378575 0.093135774 -0.0293628 -0.0011830847 -0.05422159 -0.07976502 -0.05415812 -0.0034344355
잼 0.16167845 -0.02250013 0.29637685 0.10377278 -0.2255575 0.102934726 -0.20057939 -0.1353828 -0.14812861 -0.051853072 0.07779505 -0.17408462 0.23712316 -0.019449977 0.09026078 0.11768327 0.27076706 0.17850327 -0.09905213 0.21134797 0.13256769 -0.19420157 -0.16027185 0.13326757 0.11652586 -0.061201196 -0.209358 0.037534557 -0.15000357 -0.009995367 -0.26038486 -0.17284389
사랑 0.06335047 -0.17775431 0.1522994 0.14808218 0.055412088 0.19431779 -0.07653602 -0.09772976 -0.1787342 -0.07944269 0.15716825 -0.09579195 -0.06709481 -0.0740541 0.13950795 0.15957431 0.16269436 0.01687407 -0.045346595 0.07017431 0.08967266 -0.18888357 -0.1976308 -0.14136419 0.023103304 0.075258695 -0.13094555 0.013059831 -0.14902586 -0.10306244 -0.13222747 -0.12333773
못 -0.09710516 0.044975605 -0.17169695 -0.13055389 0.06362055 -0.1103281 0.16419312 0.04291462 0.08827476 0.031089747 -0.10780899 0.1322179 -0.07933509 0.108362146 -0.12978067 -0.09157197 -0.19649886 -0.11676579 0.044287257 -0.19111356 -0.06727006 0.13867207 0.06552258 -0.06496073 -0.08574224 -0.023818158 0.22898567 0.025273966 0.11079921 0.02592364 0.1329948 0.1274321
냐 -0.048505146 0.050388884 -0.08032591 -0.065020785 -0.078382745 -0.022600517 0.028803792 0.081188306 0.01604298 -0.0052303583 -0.110550456 -0.038239833 0.036974993 0.17094103 -0.07012549 -0.0955079 0.026261833 0.01714119 0.019547723 -0.122689255 -0.033556513 0.10151045 0.12285302 -0.047458775 0.025257392 -0.05549881 0.07817122 -0.08001354 0.05532387 0.087300934 0.14965817 0.06569574
재미없 -0.15173425 0.1708669 -0.23434667 -0.11192416 -0.037520163 -0.30954146 0.35710353 0.2303127 0.3537971 0.1375415 -0.28601313 0.4362711 0.1571366 0.05411337 -0.26272058 -0.20776264 -0.33846557 -0.20339032 0.2650357 -0.38717547 -0.32124034 0.30648986 0.25362766 0.13580927 -0.11465296 -0.22454019 0.3567631 -0.07552115 0.12712854 0.09719798 0.26979458 0.25880378
쓰레기 -0.19870235 0.19112496 -0.31323308 -0.22468267 -0.08464267 -0.2535431 0.18757002 0.22381768 0.19662344 0.11855834 -0.32344237 0.29768446 0.18330215 0.21544516 -0.22170238 -0.23003879 -0.23446481 -0.1973744 0.19018959 -0.3016728 -0.2165841 0.35676298 0.28172046 0.04848317 -0.2763908 -0.30370483 0.32021382 -0.1845359 0.17236798 0.2023857 0.27542213 0.16437419
서 -0.006529036 0.025186192 0.10491303 0.0609022 0.0033740564 0.03911049 -0.060253553 0.055850696 -0.047600213 0.00674818 0.066587724 0.03785977 -0.02173473 -0.101740204 -0.0029715477 0.00046459728 -0.019126747 -0.014562396 -0.038373675 -0.06458904 -0.04307663 0.01818915 -0.06676256 0.039137244 -0.04516338 0.1318585 -0.0267463 -0.029801391 0.021337058 0.019752206 -0.05057893 0.031607985
2 -0.10350761 0.046939533 -0.016476745 -0.12399304 -0.071410686 -0.054750692 0.05607658 -0.0027657591 0.06072683 0.042113364 -0.1499438 0.066992685 -0.0005123841 0.102779314 -0.049504824 0.050747413 -0.032267235 0.02689824 0.12530945 -0.0739217 0.069019385 0.031984463 0.06628667 -0.052736837 -0.039994076 -0.043293968 -0.00044607843 -0.010349891 0.07302387 0.025359184 0.054035306 0.07494075
라고 -0.012495272 0.032002218 -0.016203431 -0.090044595 0.033772856 -0.04274745 0.002412305 -0.004054141 0.052573863 0.06018889 -0.003916866 0.042316895 0.034305383 0.030793551 -0.0351707 -0.079953134 -0.07593458 -0.07906985 -0.060093675 -0.09779907 -0.045869175 0.04364064 0.054192513 0.038606927 -0.016079323 0.018233892 0.023686891 -0.0036234495 0.07588628 0.058567945 0.060245715 0.07501561
야 0.01667371 0.010046924 0.012270613 -0.013029982 -0.044675596 -0.013018563 -0.016780784 -0.021887949 -0.005914504 -0.017851291 -0.08574214 0.07261294 0.0430194 0.058535263 -0.050577372 -0.0384416 0.013621259 0.061022453 -0.033157222 0.02231438 -0.02860859 0.028659754 -0.03962133 -0.046194345 0.04646521 0.002683654 -0.01735544 -0.0054064263 0.08241659 -0.072541 -0.005548291 0.026657093
니 -0.011442745 -0.031432487 -0.01875651 0.054511912 0.0036447195 0.022454267 0.022694485 0.05695385 0.011046017 -0.06447121 -0.025052493 -0.04510858 -0.005173818 0.06361792 -0.06895334 -0.008862778 -0.036492717 0.010057873 0.05304215 -0.09782194 -0.10579511 0.0023251008 0.018593172 -0.07699507 -0.015099034 -0.08768978 0.048008375 0.031006364 -0.022313884 0.043123793 -0.04351941 0.016584732
면서 0.0011589752 -0.061962705 0.023265662 0.080482535 0.10721152 0.093218856 0.019651463 0.0043264665 -0.01512097 0.022095567 0.058711283 -0.049298827 -0.01359241 0.018365812 0.052058082 0.04111317 -0.0066140476 0.02983336 -0.06531896 0.051217467 0.024997879 -0.016772369 -0.0044235378 -0.06425237 0.006589519 -0.016127514 -0.047389474 -0.050570153 -0.03711913 -0.062050216 0.039134264 -0.10161013
번 0.0016752558 -0.04748936 0.07248853 0.029251004 -0.07071983 0.084578395 -0.05257875 -0.10263308 -0.0025718464 -0.010722764 0.041602146 0.040389117 0.0007335771 -0.038866594 0.04684256 -0.014862106 0.04611918 -0.017712086 -0.07150367 0.051037468 0.036150854 -0.02171331 -0.100375876 -0.14957999 0.067174785 0.000958518 0.060142852 0.061398253 -0.039329316 -0.04001179 -0.108997844 -0.006435403
다시 0.001534917 -0.03765079 0.13573326 0.040051624 -0.08498162 0.05696503 -0.03996566 -0.107995816 -0.19198221 -0.06388924 0.07413156 -0.07182812 -0.03815849 0.06502499 0.0647083 0.09108794 0.16156308 0.08483632 0.041552596 0.013192721 0.1582108 -0.1066093 -0.08799991 -0.08258349 0.060309336 0.15109067 -0.055273715 0.023540586 -0.000301807 -0.07465353 -0.009121266 -0.037950337
나오 0.03231978 -0.0006516667 -0.09510771 -0.09631488 0.022158736 -0.077146016 0.01748084 -0.0011881613 -0.06446866 0.045985326 0.00013787387 0.018880162 0.076584615 0.0075083063 0.041029826 -0.05673265 -0.00801496 0.05773894 -0.027882947 0.020205526 -0.05119329 0.036318853 -0.001629316 0.000224972 -0.037693214 -0.04484613 0.06377528 -0.050819963 -0.035871696 -0.03524638 0.09237098 -0.030848194
작품 0.109216906 -0.05364455 0.08515799 0.04628594 -0.085490234 0.021089552 0.0037333998 -0.069467545 -0.032335818 -0.057582516 0.026326071 0.07266518 0.043311946 -0.057299536 -0.039777946 0.019814737 0.086802766 0.036168613 0.005029088 0.03905175 0.053516004 -0.023530623 -0.04192398 0.0734265 0.04869014 0.04207136 -0.08435409 0.07325835 -0.105158165 -0.02051964 -0.0079603065 -0.097255975
이거 0.04734187 0.03237111 -0.024667965 0.0033936293 -0.027391749 -0.04709062 0.03694572 -0.009685143 0.03040174 -0.011332182 0.021540508 0.016654015 -0.027545424 0.0612349 0.013313214 0.022006774 0.0027204575 -0.011228734 -0.01241196 0.0030436402 0.01719155 0.003648781 -0.023102555 0.03740727 0.025344148 -0.0032846371 0.03909775 -0.007391272 0.0009741164 -0.00010309619 0.08693156 -0.04689297
하나 -0.00047907158 -0.016015258 0.028652918 0.0150287645 -0.017981574 0.022403272 0.066189505 0.000629059 0.07119288 0.045728873 -0.037588667 0.041458312 0.051953956 -0.02090597 -0.0382004 -0.08888251 -0.007510295 0.028084064 0.006989037 -0.060319994 -0.094578944 -0.0027768428 -0.019464793 -0.018870262 -0.039993998 -0.0342359 -0.011030879 0.002061275 -0.0076088295 0.08016688 -0.0129663665 0.1051785
줄 -0.054678798 -0.004098561 -0.0092819715 -0.010025538 -0.02914325 -0.014440678 0.02947639 0.024572711 0.037514195 0.08860843 0.04402664 -0.0627895 -0.08942433 0.022285294 -0.060619965 0.0013506792 0.0096278135 -0.015206987 -0.04005068 -0.017497297 -0.016383214 0.024178257 0.009435325 -0.08539121 -0.02859727 0.058379184 -0.012000207 -0.021917906 0.07743395 0.06922124 -0.06429131 0.018133761
해서 -0.03262622 -0.009996235 -0.04695144 0.017906228 0.0036056864 0.03985341 -0.029664855 0.009488393 0.0014923422 0.063448615 -0.019106073 -0.05407021 -0.023777142 0.044132497 0.08684951 -0.0022451782 0.011863681 0.037693918 0.023198085 -0.057841808 0.0081284745 0.002712182 0.0024712204 -0.03634198 -0.013388016 0.02770625 -0.056909412 -0.088780835 0.008575987 -0.026726907 0.0026401526 0.01188744
개 -0.034687504 0.019343875 -0.00964089 0.0011252436 -0.031216018 -0.09436748 0.012541045 -0.017484512 0.05553266 -0.013103856 -0.037922453 0.124354035 0.070862 0.058938522 -0.043484386 -0.06814571 0.011202199 0.01653437 0.047491327 0.011467996 -0.029848032 0.066675 0.021252578 -0.015372343 0.008406652 0.02868214 0.036343288 -0.050541222 0.023771457 -0.0014313861 0.06421067 0.033952117
남 0.036104176 -0.007825218 0.04538805 0.053968016 -0.10266344 0.053843047 -0.051621646 -0.004085456 0.03509633 0.1193386 -0.052582055 -0.06318354 0.15436895 -0.08938041 -0.0008551443 -0.054899078 0.0055564726 -0.036165893 -0.040020138 -0.05170017 -0.052257158 -0.022384295 0.016446719 0.122074574 -0.13073635 -0.045082446 -0.022058891 -0.050527062 -0.01768986 0.089404985 -0.14893478 0.073847555
정도 -0.06740625 0.010499585 0.0024387434 -0.07781088 -0.06774906 -0.03349912 0.08120336 -0.052204728 -0.012989738 -0.050878122 -0.08956743 0.010031172 0.016360499 0.08574065 -0.051888905 0.016190454 -0.0422915 0.09338292 0.034725014 -0.06011396 0.028361715 0.044400137 -0.052922416 -0.17129435 -1.632161e-06 -0.09874829 0.056384634 -0.020877186 0.03245791 0.011918779 0.05738146 0.057327606
마지막 0.03810019 -0.11449092 0.020053681 -0.017454151 0.07889049 0.010980558 0.052163865 -0.07839339 -0.05202058 0.01784358 0.110595874 0.0119223185 -0.052057307 -0.0753656 0.026325809 0.06734661 0.049082424 0.029730845 0.014573688 0.05182631 -0.022330202 -0.111693144 -0.096673414 0.029079894 0.11879291 -0.004422537 -0.06635523 0.099232264 -0.066813305 -0.12043208 -0.102567025 -0.06670819
끝 -0.07732239 -0.0056429952 -0.12329474 -0.18860753 0.012606636 -0.06417693 0.07280028 0.029303795 0.13677803 0.11648472 0.029564122 0.053601943 -0.008070341 -0.043538697 0.010865517 0.021328926 -0.12349893 0.05707844 0.043408386 -0.048869584 -0.06263938 0.0038662548 0.020231063 -0.032458287 -0.011460247 -0.07079514 0.076253034 -0.027642105 0.018857887 0.09155428 0.03366319 0.073135115
이건 -0.1608874 0.07728959 0.039148018 -0.057560828 -0.23384286 0.117798045 -0.061467458 0.0924147 -0.038533222 0.04683579 -0.050302297 -0.20148648 0.13067147 0.26917732 -0.07590083 0.055230107 0.14102165 0.028971083 0.085561946 0.035107933 -0.00938872 -0.0423169 0.0902571 -0.0029126746 -0.20500977 -0.032353397 -0.0016669666 -0.20694602 0.20562273 0.2633 0.015540691 0.06410703
액션 0.02817701 -0.016110115 0.07908146 0.083303176 -0.0009687452 0.06237178 -0.08903042 -0.06157509 -0.07781263 -0.009670902 -0.055879418 -0.018392537 -0.01680732 -0.04629488 0.00058609404 0.038890872 0.009451195 0.06437731 0.022454586 -0.016598191 0.07545834 -0.034008387 -0.028771462 -0.09780077 -0.011149493 0.030924493 -0.034321386 0.013314475 -0.024523316 -0.02340224 -0.09953907 0.021872872
임 0.015811132 0.056166325 0.12567215 -0.017857015 -0.036825452 0.07442485 -0.10264909 -0.036824547 0.013944955 -0.00429421 -0.05500313 0.07302028 0.10219372 -0.023134878 0.056012295 0.03262166 0.025607968 -0.01275854 -0.0058526997 0.021757707 -0.017870883 -0.06697564 -0.11900737 -0.019997677 0.028788207 -0.09459889 -0.05891285 0.06617471 -0.10673255 0.012663195 -0.08616596 -0.02464097
ㅋ -0.04879063 -0.043827694 0.03247594 0.10514035 0.11443827 0.062953904 0.0020827756 0.07993561 -0.0043140287 0.08448039 0.07158921 0.03645355 -0.026312409 -0.09463157 -0.027469615 -0.061403293 0.046910524 -0.015326609 0.009826126 0.024649529 -0.033961993 -0.090485856 -0.021337165 0.2578168 0.11073424 0.02033731 -0.03928526 -0.00079417304 -0.03793012 0.0028667871 0.05122667 -0.0032487202
3 -0.09529845 0.090827934 -0.13755651 -0.0406178 0.0088853 -0.12547849 0.11712137 0.058275964 0.049871683 -0.013208408 -0.039902613 0.07450843 -0.042771228 0.03449908 -0.027616413 -0.07148674 -0.0015239042 -0.010751345 0.04468154 -0.019031629 -0.051347654 0.048985865 0.06792253 -0.015154779 0.016975949 -0.0071490663 0.06049378 -0.005499599 0.13332647 -0.015246629 0.11430771 0.12209941
기대 0.07193155 -0.019475931 -0.13133399 -0.014558202 0.06660251 0.008263357 -0.020340877 0.052085374 -0.05722831 0.009620193 0.060317084 -0.08999889 -0.11245822 0.08410506 0.043809686 -0.060926393 0.026578123 -0.07905966 -0.070039995 0.056547534 -0.0039738473 0.029548613 0.003201333 -0.058846414 -0.03370265 -0.009115039 0.055244897 -0.1308124 -0.101892844 0.050437078 0.11781601 -0.08636282
입니다 0.044075686 0.01931481 0.23347434 0.039858375 -0.16893362 0.10660344 -0.03989231 -0.089911446 -0.039972045 -0.110215336 0.05931935 -0.0179569 0.10906083 -0.016518768 -0.03070887 -0.014515543 0.039520442 -0.020943133 -0.06538969 0.0843873 -0.075887784 -0.10207648 -0.04341814 0.16843769 0.07839118 0.047124904 -0.03686287 -0.049352396 -0.053182133 -0.05075382 -0.04091817 -0.08533365
건 -0.04655202 0.04143564 -0.0012222563 0.021791318 -0.022089003 -0.021752762 0.083012216 0.04935542 0.03222087 0.08765239 0.021545315 -0.05092337 -0.019008514 -0.0689185 -0.106253825 -0.09711364 -0.10016381 -0.067531295 0.02962251 -0.08901773 -0.12427474 0.040798597 0.040158715 -0.009679347 -0.08770523 0.0399131 0.013327055 -0.04411907 0.0030615518 0.060532037 -0.0067165853 0.08465768
라는 -0.051708266 -0.00627353 0.07459304 -0.0063197925 0.04620129 -0.008045471 -0.023886964 -0.053468723 0.078804955 0.036566224 0.034644682 -0.020698242 0.01061129 -0.041249882 -0.042415995 0.030227646 0.014083413 0.039729968 0.016089652 -0.09903266 0.03163213 0.015541737 0.044787206 0.019883139 -0.015543099 -0.058184776 -0.0005921443 0.06697516 -0.012064002 -0.000627746 -0.019216493 0.028134393
분 -0.095467284 -0.03181359 -0.113710575 -0.026528552 0.11761975 -0.055613164 0.02448193 0.046237368 -0.0043841936 0.042150274 -0.1091585 0.0034422108 -0.08272238 0.10329706 -0.013622218 -0.083742365 -0.14161828 -0.032183588 -0.013636373 -0.08419848 -0.031939905 0.14008102 0.10359699 -0.07417544 -0.11113059 -0.0018966892 0.119785465 -0.06755057 0.12950058 -0.042981323 0.11782993 0.026209231
완전 -0.03201759 -0.007592001 -0.027123 0.0557666 -0.09878227 0.09002711 -0.07138741 0.062665485 -0.04255216 -0.03547589 -0.079468444 -0.1961953 0.084083304 0.106736146 0.04640205 0.05500907 0.13919002 0.054594476 0.08518362 0.06752761 0.08590521 0.000565055 0.049366254 -0.05451961 -0.02625185 -0.05078758 -0.06675866 -0.14174658 -0.037278805 0.036606018 0.050630733 -0.039178748
다는 -0.023992494 0.06915996 0.016452918 0.10983454 0.03665515 0.01607166 -0.101947635 0.019538611 0.095815934 0.080634646 -0.043738965 -0.021623513 0.0014006874 -0.11767335 -0.022996578 0.023615403 -0.029660543 -0.118907034 0.045575265 -0.050778385 -0.05066276 0.02876052 -0.035899 -0.10229951 -0.09366959 -0.05865742 -0.08355121 0.037424635 0.026293667 0.04461568 -0.078746915 0.098239474
참 0.0060940217 0.049992193 -0.057068292 -0.0539716 -0.052547332 -0.055119894 -0.029590853 -0.02986372 0.021045841 0.058661185 -0.033198778 0.07770489 0.109253414 0.00854557 0.06329023 -0.011155564 0.012031887 -0.032872263 0.01837786 -0.015169141 -0.019616729 0.066142246 0.042069424 -0.006876461 -0.055899043 -0.07997419 0.028268768 -0.019436609 0.027539508 -0.022064531 0.08199832 -0.0065431027
많 0.03732208 -0.0080549475 0.050645556 0.018509738 0.08515416 0.019763079 -0.011311823 -0.07329066 -0.04026594 -0.09282173 -0.06698767 0.1455756 0.018148704 0.023097988 0.014314018 0.09051006 -0.033379626 0.098639056 0.055081356 -0.0008608766 0.06877337 -0.0616606 0.02284113 -0.10265109 0.04429346 -0.03593148 -0.015207097 0.11943199 0.033451114 -0.047855545 0.04730786 -0.009613352
처음 -0.022273023 0.0027761727 0.13769259 0.0023920257 -0.12336747 0.002582043 0.014336373 -0.0010571445 -0.031763405 -0.013362042 -0.010797136 0.038337056 0.072646506 -0.07346067 -0.12846969 -0.012481747 0.034052752 0.06458749 0.06698856 -0.05859069 -0.09314122 0.015557243 -0.058029417 0.04334822 0.13613199 -0.050542127 0.0058770534 0.051655613 0.00035451213 0.006182039 -0.11490653 0.040371798
장면 0.030760013 -0.03566222 -0.10548196 -0.04095713 0.004889953 -0.034175962 0.0186429 0.050495714 0.001214691 0.069410495 0.10485999 0.005710416 -0.074418284 -0.041918788 -0.010503842 0.05786743 0.022976432 0.040832434 0.055797555 0.050330043 0.008577927 -0.02229146 -0.030383548 -0.013554115 -0.01509895 0.06834066 -0.00285908 -0.028686998 0.027181795 -0.04223539 -0.013773118 0.061543092
대 0.011748241 0.009536711 -0.03624163 0.039285064 0.09688586 -0.032313686 0.05533069 0.058494363 0.021139674 -0.0407615 0.021060705 -0.03380158 -0.1889725 -0.010865435 -0.049992476 -0.01189212 -0.00034130065 -0.087329164 -0.06264259 -0.061258737 -0.048332106 0.025993519 0.03383522 -0.079848155 -0.007922803 0.110624634 -0.02867109 0.04699451 0.055857264 -0.01485351 0.054622527 -0.004987766
아깝 -0.0050189714 0.15684354 -0.13936625 -0.27381292 -0.19069956 -0.27756903 0.2039346 -0.014316902 0.3390601 0.18628289 -0.2562438 0.2616329 0.20706415 0.16048238 -0.03967737 -0.16382815 -0.24682672 0.15172115 0.14027111 -0.13162605 -0.3034875 0.26575935 0.1285999 0.0068866196 0.21409003 -0.2500611 0.294781 -0.011011405 -0.04281597 0.1399367 0.11466465 -0.014320605
다가 -0.08391918 0.04202425 -0.12748104 -0.18518725 -0.06057884 -0.029969178 -0.0013739091 0.0628293 -0.0031469471 0.020447688 -0.15350159 -0.07719719 0.0025378778 0.15913238 -0.039583147 0.06449462 -0.0033292517 0.01059752 0.09673533 0.044911638 0.02703981 0.022799032 0.030045047 -0.061614323 -0.15918246 -0.07902689 0.054235548 -0.10417814 0.11703883 0.071735814 0.013962152 0.09789949
으면 0.041566268 -0.02699675 -0.06785045 -0.03326091 0.14333214 -0.07995303 0.041281175 0.06537924 0.06490488 0.05711255 0.00579365 0.04408387 -0.07857189 -0.1226245 0.060609557 -0.014851379 -0.044086117 -0.026056007 0.071480565 -0.07956117 -0.024401136 0.064556375 -0.01859143 -0.015361564 0.023466803 0.044301365 0.026463093 0.02325992 0.059216533 -0.12129004 0.020468177 -0.0057734307
지금 0.044600118 -0.11387238 0.026059112 -0.008991171 0.07825489 0.085019246 -0.13402326 -0.12356251 -0.034958094 -0.07192342 0.027701538 -0.017642766 -0.06513472 0.003467451 0.05965982 0.028703861 0.03460035 0.08681969 -0.058522854 0.10131524 0.083621845 -0.0585879 -0.06668582 -0.11592239 0.0036182015 0.107873015 0.021604944 0.065157555 -0.0059172646 -0.11464673 -0.035469413 -0.083253674
모르 0.0132800015 -0.06941542 -0.10825847 0.0037748227 0.049792 0.026701573 0.048965428 -0.09553812 -0.044469602 -0.08100444 -0.103297785 -0.05134896 -0.058924753 0.19104499 0.020236257 0.030627526 0.025049604 0.1087973 -0.049945258 0.060560495 0.10790082 0.08097247 0.05698824 -0.1268116 -0.04901463 0.120725185 0.033722937 -0.01886805 0.02963708 -0.07654514 0.15580918 -0.09942018
이렇게 0.054982193 0.0134245865 -0.00092345517 -0.02974799 -0.03325878 0.091454744 -0.16373804 0.030279685 -0.11232751 0.055339 0.014538804 -0.0815114 0.08138354 0.12551561 0.11603598 0.025451345 0.007794868 0.009655244 -0.07435531 0.1140693 0.09485494 -0.019564375 -0.03548304 -0.034236424 -0.038734302 -0.083142236 -0.047234777 -0.10710122 -0.04490776 0.04116042 0.07582319 -0.02647916
' 0.03391372 -0.05426925 0.04230582 -0.0044116024 -0.06155747 -0.024651283 -0.04340659 -0.06496568 -0.027991332 -0.028726766 0.04033859 -0.067472324 -0.054521907 -0.016846187 -0.010952808 -0.01909376 0.023468161 -0.014426143 0.05773541 0.014392176 -0.02744103 0.050210573 0.009122635 0.01681178 -0.016031021 0.06730283 0.0669449 0.0074025625 0.08716481 0.02227401 -0.0102387685 -0.06564683
편 0.027472781 -0.07732566 0.108445846 0.05096268 0.067871064 0.0716913 -0.08125824 -0.025848469 -0.024114205 0.001632927 0.11566282 -0.079190955 -0.14548902 -0.09439548 0.019158926 -0.038421877 -0.031668894 -0.003667838 -0.09426513 0.03561358 -0.037180506 -0.0024782424 -0.0033760224 -0.11724048 -0.0049281046 0.046260543 0.008311843 0.049066804 -0.11248252 -0.067454986 -0.08051005 -0.07319171
일 0.028731763 0.011254698 0.059872337 -0.03194387 0.036293823 0.012032137 0.040606413 8.180468e-06 0.057994056 -0.004755258 -0.04947794 0.038727965 -0.04755949 0.011027485 -0.06031681 -0.03169718 -0.030610552 0.028083816 -0.02978758 0.040165238 0.040264413 0.0006230335 -0.023210447 -0.056577064 -0.017168984 0.053798955 -0.037706174 0.04304978 0.05754485 -0.024838788 0.019145168 0.043845806
돈 -0.051851835 0.07360038 -0.014053018 -0.1183201 -0.016140826 -0.07623121 0.05094919 0.12863553 0.20838429 0.1550685 -0.012939696 0.08259681 0.059176814 0.080566816 -0.16084825 -0.22789371 -0.1963527 -0.14753896 0.020948099 -0.18058957 -0.23426703 0.10979372 0.06980418 0.104739465 -0.07611458 -0.12492495 0.17663808 -0.04114324 0.045422323 0.0702003 0.03268979 0.058029003
이게 -0.008036612 -0.0321622 0.016680893 -0.0061737346 -0.040790644 0.03563969 -0.0039239116 0.025376964 -0.050381113 0.02765922 0.02206446 0.043043297 0.0016710693 -0.0033636063 -0.04990649 -0.03830929 -0.051744204 -0.03035532 0.009714017 -0.067431286 -0.024261704 0.015443109 0.054370992 -0.03384944 -0.0309512 0.037934277 0.08299658 -0.05913621 0.035119243 0.008468185 0.046279214 0.09841871
성 0.004017608 0.013731928 0.052496713 -0.008183849 -0.07416316 0.051025234 0.0045930045 0.08262481 -0.0066959537 0.051161118 -0.008238259 0.041441403 0.020947304 0.08524848 -0.013843684 -0.03786065 -0.0086739715 0.031130362 0.077496044 -0.0304753 0.026560746 0.017337995 -0.012396609 -0.12571445 -0.058705296 -0.072235435 -0.024992663 -0.008900774 -0.0020985296 0.05918782 -0.033343095 0.07096529
느낌 0.0378732 0.06427106 0.05441189 -0.017282827 -0.15591605 -0.050603915 -0.045332253 -0.0499795 -0.07499404 0.06967015 -0.0041783364 0.016545234 0.16601378 0.0055157105 0.044609167 0.0015272894 0.008130228 0.06674928 0.020438224 0.0026371425 0.0061010784 -0.018237596 -0.052879907 -0.01118384 0.064904764 -0.027784742 -0.059357874 0.012184964 -0.035663977 0.06402839 -0.050147872 0.03934008
시 0.00375624 0.03419483 -0.039618548 -0.03359703 0.07392953 -0.03924494 0.012009249 0.015886497 0.054074038 0.05293294 -0.004114058 0.030978573 -0.0458022 0.019236729 0.053638954 0.013721698 -0.10208616 -0.039614677 0.0155748585 -0.054211248 -0.031041881 0.0708183 -0.031844076 -0.124850616 -0.045820214 -0.08760289 0.04194631 0.028744642 -0.015532574 0.028796265 0.034856137 0.042077173
이야기 -0.023274416 0.007404715 -0.06583079 -0.011974573 -0.033672087 -0.01759028 -0.0433609 0.019693775 0.005994933 -0.020049198 0.0012638044 -0.055674143 -0.0151852425 -0.046959747 0.06619519 0.03663109 -0.0075339144 0.026186088 0.00939369 0.031539045 0.012985747 -0.016923944 -0.021446982 -0.11296014 -0.021565197 0.035763726 0.02245929 -0.033661257 -0.05489884 0.04734449 0.018358946 0.053454
최악 -0.29858693 0.40502208 -0.45596483 -0.24127334 -0.40646985 -0.20629522 0.0838633 0.5577751 0.28240767 0.3280497 -0.26372835 0.08338738 0.41162086 0.2170612 -0.27898765 -0.2914804 -0.299061 -0.27806675 0.36550373 -0.050767273 -0.29491556 0.44838375 0.27645648 0.3676967 -0.4332993 -0.32100308 0.3542691 -0.46135578 0.17072582 0.4851952 0.15972848 0.17779437
된 0.0679853 -0.02194938 0.041098706 -0.0056288526 -0.0021712312 0.0026189547 0.016938156 0.041721404 -0.0066993255 -0.04369556 0.06128961 0.06653918 -0.018411499 0.009001999 0.02325549 0.014638231 0.024337078 0.020819178 -0.007278913 0.050521296 -0.009712676 0.004247665 -0.03567087 0.039043535 0.05138385 0.049282007 -0.001911615 -0.0015384329 -0.039893467 -0.054164454 -0.050904457 -0.060008533
봐도 0.13636369 -0.021305226 -0.0065894136 0.04210206 -0.072410785 0.058659587 -0.105334915 -0.05813322 -0.0109836245 -0.012785385 -0.021742886 -0.027278908 0.13432997 -0.099975966 0.14519677 0.17546457 0.066043295 0.20083056 0.031971585 0.18254547 0.041527823 -0.11651685 -0.1326343 0.030566059 0.11471323 -0.14905855 -0.11393418 0.02797622 -0.14199777 -0.052050397 -0.11274085 -0.12327838
님 0.04318704 0.004977582 0.05071657 0.057713903 0.14459445 -0.0007999292 0.009569359 -0.0013796533 0.015330492 0.024539752 0.095110424 0.05837031 -0.08985522 -0.23002622 0.08100143 -0.030728884 -0.022499355 -0.017317541 -0.15119898 -0.020270709 -0.022692928 -0.00315671 -0.07117711 -0.021746557 0.058723897 0.05135288 0.034638967 0.09917375 -0.17006175 -0.1121127 -0.06785023 -0.019615533
어서 -0.00876169 -0.054868534 -0.0076031997 -0.08532755 -0.022181481 -0.003363702 -0.0037600347 0.028616158 -0.04201557 0.024300259 -0.042093948 0.015423341 0.06881697 -0.05436706 0.034169633 0.052580513 0.025421014 0.08373915 0.020656582 -0.022322146 0.07182944 0.035805296 0.009256213 0.025087597 0.006459873 -0.06008695 -0.017028598 -0.021552261 0.06877846 -0.033877272 0.06788771 -0.0897221
애 -0.044108536 0.08237225 -0.08825093 0.019673696 0.10192724 -0.05891443 0.04729404 0.06169906 0.06597645 0.035625864 0.051638853 0.019424235 -0.027132371 -0.0123985205 -0.0043165865 -0.09159682 -0.022122977 -0.055302065 -0.0459944 -0.010481002 -0.026213983 0.08151441 -3.5421544e-06 0.04258421 -0.014941236 0.042394947 0.0822171 0.012364686 -0.0014338655 -0.009368524 0.018611941 0.052727323
전 -0.01077492 -0.043498877 -0.025593422 0.035201695 -0.03829016 0.0091863265 0.004838827 -0.009463278 0.014178336 -0.07047631 -0.00077505247 -0.108315706 -0.048016142 0.10407063 -0.065234676 0.0021813675 0.019538788 -0.007319938 -0.025964167 -0.053240575 0.013519568 -0.0007212752 0.09536599 0.12325302 0.0033634743 0.11636682 0.03535501 0.0027323319 0.0402583 -0.051380754 0.040155023 -0.03504723
넘 0.09115264 -0.012942183 -0.031245725 0.003995705 -0.12759952 0.019467501 -0.044490308 -0.049058434 -0.12097045 0.015756652 -0.040111326 -0.18390617 0.06226175 0.12134391 0.06064699 0.02401839 0.06963539 0.006509806 -0.035935972 0.06994745 0.006088489 0.055681307 0.025731845 0.012232012 -0.023245092 -0.0032563792 -0.03623753 -0.074988335 -0.07872862 0.0052234735 0.0038887972 -0.1216117
ㅠㅠ 0.036487583 -0.0426292 0.17977713 0.042275913 -0.08874946 0.014016513 -0.054956775 -0.034102306 -0.07105483 -0.06650594 0.07306116 -0.031870462 0.021936856 -0.060227074 0.033444803 0.013892615 0.014845904 0.07281 -0.016341297 0.0015009354 -0.018652795 -0.080204345 -0.09932401 -0.0453042 0.059300404 -0.008858546 -0.036960877 -0.018914925 -0.08953442 -0.04679154 -0.12622541 -0.080569424
인데 -0.022617979 0.0200595 0.00084356486 -0.060126375 -0.03914464 -0.06550393 -0.029626526 0.0098391585 -0.0237813 0.073509276 -0.057791173 0.03801402 -0.049780477 0.01295966 -0.01769349 -0.010075843 -0.013089433 -0.008111798 0.047712088 -0.021496492 0.09679094 -0.02996045 -0.03444936 -0.10693428 -0.035084102 0.018452873 0.011564703 -0.0015558567 0.043739192 -0.0021595596 0.060139515 0.0452913
다고 -0.054406304 0.0021212737 0.038056426 0.053343307 0.07990616 0.06583288 -0.08539982 0.021962747 -0.059934773 0.073586635 -0.014090674 -0.15374407 -0.07152935 0.04685457 -0.04140259 0.0014719521 -0.04352394 -0.1435983 -0.014174054 -0.06994438 0.024450425 -0.15397829 -0.011501615 -0.03815736 -0.15768349 0.10817532 -0.13116597 -0.021707196 0.11458009 -0.03702913 0.049444247 0.13045062
이해 0.043676514 0.025553267 -0.10001969 0.03497339 0.1197487 -0.06727809 -0.014132386 0.06650403 0.0076634884 0.06912254 -0.013105087 0.039554056 -0.1067902 0.016843202 0.06380752 -0.028357945 -0.040935792 -0.041120246 -0.06689399 -0.0351115 0.049768683 0.1304763 0.039342508 0.01417132 -0.023408335 0.16527699 0.019142881 0.030442195 0.0024489537 -0.022605091 0.16039538 -0.011846362
별로 -0.12627016 0.13190132 -0.23605137 -0.18363607 -0.19816999 -0.15682282 0.26929966 0.15996902 0.21597667 0.1994914 -0.20191097 0.21212487 0.16166882 0.10494077 -0.23892586 -0.13669667 -0.16526486 -0.01635695 0.32889804 -0.2729554 -0.33508465 0.22486202 0.17448044 0.0937176 -0.051864766 -0.25026682 0.21824622 -0.15251079 0.13084267 0.16902874 0.12376801 0.17608869
그리고 0.040674258 -0.0022828174 -0.023383344 0.13614587 0.0010851389 0.058166705 -0.056512605 -0.075468406 -0.09536119 -0.00010055326 0.012768681 -0.08430452 -0.060050055 -0.0021128252 0.03511333 0.054874763 0.0404971 0.08394784 -0.06812476 0.07259413 0.074389584 -0.044627253 -0.07680765 -0.080916345 -0.0318192 0.03313944 -0.08921998 0.029582053 -0.10394489 0.00028201324 -0.056040894 -0.077984855
명작 0.20401113 -0.13753222 0.2517378 0.1563211 0.1992358 0.12420943 -0.14680086 -0.19091938 -0.16929752 -0.16568018 0.19205967 -0.106916144 -0.14677449 -0.27439255 0.13957731 0.17761809 0.17742535 0.14286724 -0.17819898 0.12329528 0.15133694 -0.19467609 -0.16132553 0.00024069054 0.15466854 0.10941666 -0.19950883 0.1631597 -0.24686499 -0.15772471 -0.18645613 -0.1617122
여자 -0.09548802 0.033851646 0.024101399 0.0413222 -0.0034548636 0.04596251 0.061273865 0.02567183 0.06858161 0.05450601 0.06466948 0.06278234 0.007658178 -0.115901165 -0.049591374 -0.090431504 -0.029309439 -0.08882 0.06464463 -0.005358864 -0.070525296 8.0041806e-05 -0.07619845 0.0022429742 -0.052535485 0.013057369 0.027948387 -0.037887298 0.024376547 0.08362122 -0.08568058 0.0835093
^^ 0.042253166 -0.071970366 0.1180035 0.16294545 -0.030721614 0.08931711 -0.05495718 -0.07415748 -0.13770309 -0.09936867 0.043232076 -0.037983116 -0.03649692 -0.045640193 0.058148284 0.13585928 0.104510345 0.082454436 -0.073029675 0.08007589 0.031268146 -0.08265358 -0.007354579 -0.051598758 0.01705541 0.07906865 -0.12359897 0.062545806 -0.020218438 -0.14219688 -0.09991712 -0.047367953
역시 0.110680155 -0.024388209 0.04484756 -0.021625796 0.008523828 0.015717272 -0.09034549 -0.065505445 -0.070245236 -0.053822003 -0.0027686395 -0.13889997 0.08754588 -0.0093773855 0.0904727 0.027769111 0.115651324 0.013993807 -0.038048986 0.14113298 0.0540194 -0.034762982 -0.05109066 0.0073484518 -0.016770242 -0.023869427 -0.07690503 0.010738513 -0.14106409 -0.008719048 0.07189205 -0.12996161
난 0.029665416 -0.11726008 0.0419117 0.0602282 0.08928166 0.03052165 -0.07980122 -0.08044196 -0.06934955 -0.14731495 -0.008616412 -0.10365051 -0.06918934 0.068694554 -0.047482103 0.0793397 0.03530953 0.06825534 -0.012754747 0.031868637 0.06649452 -0.08489815 0.036444772 -0.039792515 -0.0046200994 0.10917533 -0.071530886 0.009860999 0.046892956 -0.092463985 0.032418776 -0.031789877
이상 0.0054015093 0.009307577 -0.004380365 0.0023329495 -0.11520364 -0.05434715 -0.04190216 8.8730834e-05 0.05482022 -0.005429926 -0.053303964 -0.014667522 0.021147303 -0.0071485555 -0.026593616 -0.014333046 -0.016557625 0.07867806 0.02705621 0.021885147 -0.038864408 0.04264136 0.061280612 0.008409689 0.035754196 -0.0031257507 0.01681311 0.014279391 0.0004866851 0.08815352 -0.056764886 0.07050547
또 0.124017686 -0.08274149 0.03248609 -0.05076943 0.020668827 0.04683344 0.029206624 -0.055698853 -0.031840567 -0.03248083 -0.018043915 0.031544887 0.031713776 -0.1800772 0.08173921 0.07512805 0.049913496 0.13528498 0.033178356 0.107514985 -0.0016504847 -0.044608098 -0.129121 -0.018654896 0.108012065 -0.017912626 -0.03247811 0.099803075 -0.079691574 -0.01782771 -0.11063753 -0.034983598
걸 0.017163096 -0.06830611 0.0627322 -0.0686437 0.045036484 0.029294357 -0.011747357 -0.001994519 0.0727659 -0.020784618 -0.03922786 0.06625654 0.051600672 -0.022967028 -0.02563471 0.05313623 -0.072626136 -0.06257875 -0.03974869 -0.056402378 -0.035036407 0.027008832 0.016365606 0.038248748 -0.02899966 -0.058818735 0.015997915 0.040560227 -0.03572271 -0.008576708 0.06826739 -0.03807038
한국 -0.02665187 -0.011513129 -0.056341138 0.011877608 0.17656638 -0.018921105 0.0006496875 -0.031372458 0.035726327 0.049723778 -0.008319539 0.1390882 -0.10957791 -0.11485786 -0.0827699 0.030495116 -0.074337915 -0.056012727 -0.037702937 -0.10003144 -0.018108439 0.007412591 0.0020460722 -0.087354206 -0.0037305704 -0.02145851 -0.021773556 0.06418709 -0.07289418 -0.009332406 -0.0054535773 0.03198119
는지 -0.00783894 0.11017258 -0.0669611 -0.049222957 -0.10529132 -0.08837971 0.027598975 0.07000776 0.020521877 0.059643533 -0.017428821 -0.016891804 0.011425072 0.08905455 0.005543058 -0.07639628 -0.03794205 -0.0014720942 -0.08373925 0.0052237487 -0.041921545 0.09419448 0.051827177 -0.026699446 -0.06102686 -0.040161233 0.10488636 -0.09634475 0.023689818 0.025629278 0.06286275 -0.08652981
많이 -0.0024672356 -0.013177957 -0.013550578 0.03046796 0.025774632 -0.0522874 0.007738918 0.003548292 -0.0066846 0.0025876877 -0.06677032 0.025265714 0.052609563 0.06723177 0.04213295 0.019277042 0.017116116 -0.02745577 -0.03405918 0.0057716104 0.036570117 0.03410301 0.026756493 -0.039116688 0.03018617 -0.01408667 -0.04398167 0.05128092 -0.049374007 0.0113527505 0.079160936 0.019638171
에게 0.043909602 -0.06749962 0.10554255 0.001387268 0.0035983087 0.07883777 0.011078439 -0.0701691 -0.05542334 -0.059221048 0.025194354 -0.082634784 -0.054169573 -0.078793176 0.045682814 0.010840953 0.11697397 0.04555856 0.013718372 0.006591961 -0.006298318 -0.026848705 0.022836812 0.13264234 0.0012936909 0.0044779447 -0.04129884 0.04374882 -0.0012843728 -0.0111389235 -0.06088168 -0.093078196
부터 0.044410005 -0.019077538 -0.10968391 -0.0064645093 -0.054132193 -0.0033623958 0.027026372 0.0347795 -0.043030493 0.071936525 -0.029199984 0.019316126 0.06115313 0.021987101 -0.013458762 0.03975303 0.04155357 0.057730272 0.056750376 0.00058860716 0.078665674 0.037815902 0.055164084 -0.026155205 0.06037074 -0.062249176 -0.023348223 -0.046897307 0.04667033 -0.0037061658 -0.009576961 0.030114887
만든 0.03464372 0.006761376 0.07848559 0.025899684 -0.20062374 0.019480156 -0.013125199 0.034977317 0.007834972 0.027860276 0.07245342 -0.06962611 0.093053944 -0.14000358 0.084167935 0.062753774 0.07952226 0.058354035 0.08614138 0.07523962 -0.010400831 -0.036494236 -0.04811254 0.048561826 0.09832688 -0.11663016 -0.1508282 -0.09230551 -0.058308724 0.13616168 -0.12595533 0.016108233
주인공 0.0018263888 0.01163426 -0.051653884 -0.0657659 -0.043591574 -0.05572691 0.094469376 0.040378857 0.0042096484 0.014883529 -0.07369197 -0.024785725 0.029839525 0.08605758 -0.069631934 -0.002400516 -0.036849268 0.034069657 0.044067748 0.01591124 -0.038347665 -0.013754638 0.008274721 -0.00023214416 0.03755125 -0.008575689 -0.0123603875 -0.030971391 0.04684877 0.048067737 0.036243446 -0.014233239
받 0.07270347 0.037999067 0.058758188 -0.043891978 0.011055277 0.024073603 -0.110571064 -0.068237476 0.0728357 -0.029307371 -0.08238995 0.11991662 0.053125042 -0.031084416 0.022000628 0.05994153 -0.044349167 -0.013246123 -0.110735945 -0.006255418 0.0041654273 0.021818638 -0.075892836 -0.033330802 0.004843038 0.006313397 0.029736094 0.09317164 -0.025090354 0.01634593 -0.046816334 0.0069279415
합니다 0.05074899 0.009177334 0.05385958 0.011419239 -0.11561109 0.054280568 -0.044959553 -0.058309413 -0.082512066 -0.06394404 0.019490024 -0.044326052 0.087170884 -0.03378952 0.010637791 0.06503339 0.05846426 0.012976582 0.008854796 0.053449113 0.033166066 -0.0003871814 -0.0014409247 -0.09730288 -0.06378418 0.053677425 0.022140978 0.019453377 -0.0010033431 -0.006463188 -0.049339496 -0.05470515
우리 0.09920811 -0.062098913 -0.021977928 0.073288105 0.111935854 0.03544375 -0.071772754 -0.034154143 -0.04989442 -0.118302874 0.06534861 -0.059673004 -0.091763705 0.0013742362 0.036650263 0.028350512 0.047519077 0.092017606 -0.08664001 0.06275076 0.10470012 -0.073881045 -0.07260972 -0.053077657 -0.0009563089 0.16944264 -0.026959516 0.102247015 0.004186343 -0.14358526 0.039547317 -0.09577312
두 -0.034238055 -0.044515956 0.07304613 -0.03787396 -0.08813113 0.033545572 0.05482571 0.037304986 -0.04513469 -0.019954259 0.07969281 0.029957965 -0.026520565 -0.0062337886 0.037648484 -0.030117393 0.06886941 0.030404504 0.048294675 0.038603153 0.0038305535 -0.07022272 -0.0069224443 -0.008669234 0.010565341 0.01629536 -0.013815 -0.048519175 0.066033036 -0.0011811251 -0.04725024 0.002200527
살 0.007437692 0.01579051 -0.12341923 -0.0060569826 0.2207775 -0.04356589 2.4170513e-05 -0.038960762 0.02471882 -0.014325632 0.025653841 0.019768387 -0.18245941 -0.04922571 0.024724087 0.007699808 -0.08134366 -0.019577872 -0.0729324 0.09488456 0.0039961752 -0.025390653 0.027602896 -0.18790594 -0.008518032 0.011678028 -0.011772574 0.013158403 -0.045145515 -0.066346146 0.039003402 -0.01909297
!! 0.034677077 0.00039865996 0.018855311 0.043907393 -0.06360427 0.0061014267 -0.04916634 0.012052162 0.038333707 0.03646356 0.030089535 -0.055010114 0.014606425 0.013533438 0.03015771 -6.8469e-05 0.013632892 -0.04050902 0.012456726 0.029907575 -0.0061910106 -0.003658258 -0.09621743 -0.08222918 -0.06279422 -0.0893487 -0.030649748 -0.08379556 -0.037085064 0.014521131 -0.046964306 0.017182488
길 0.013500408 -0.047048487 -0.08802442 -0.10401466 0.03542994 -0.08800695 0.07797211 -0.07425517 0.052993763 -0.05875925 -0.016195675 0.05890824 -0.07044989 0.024796799 0.029518293 -0.0683075 -0.06570099 -0.06306992 -0.005784942 -0.01730528 -0.0913198 0.082992196 -0.0003325048 -0.001930647 0.0015352682 -0.0312295 0.1555822 -0.016372254 -0.041039556 -0.004298956 0.086362675 0.01824953
엔 -0.059268117 0.0023067528 0.028020043 -0.024003401 0.030480316 -0.06936028 0.10245808 0.044508137 -0.011305888 -0.044489097 0.022221657 0.074989714 -0.12134402 -0.08023309 -0.058445577 -0.09565549 -0.019530185 -0.01933587 0.043819528 -0.110336274 -0.080887765 0.030437581 0.022701908 -0.0050176424 0.10507435 -0.011906796 0.06216859 0.03439551 -0.011284189 0.04208799 0.00864429 0.0735283
괜찮 0.031217124 -0.066734135 0.23285812 0.19503675 -0.021771092 0.1851614 -0.04713425 -0.03075566 -0.068769075 -0.06599438 0.21830125 -0.04119102 -0.13903907 -0.22726373 0.058283493 0.025966344 0.114434265 0.024664825 -0.12200519 0.064602815 0.026194938 -0.19884919 -0.1753772 -0.019445844 0.10679048 0.068774916 -0.10801962 0.093968034 -0.100331 0.0019839285 -0.20442995 -0.055723775
기억 0.043688267 -0.07768465 0.17455968 0.07749797 -0.11505259 0.09097527 -0.1398633 -0.071196124 -0.10491215 -0.009149195 0.07210274 -0.09976696 0.13055295 -0.115898274 0.054504886 0.06649841 0.062483605 0.09721199 -0.032475606 0.07354319 0.0399244 -0.08935453 -0.102455236 0.03821345 0.08334389 -0.09917792 -0.11848518 -0.028961798 -0.0608549 0.026800072 -0.17893745 -0.07857627
연출 -0.0044272006 0.06997504 -0.02686646 -0.0006007149 -0.19123982 -0.05610978 -0.075874545 0.009013694 0.014125509 -0.044693515 -0.06695168 -0.018830182 0.0048064995 0.23239651 -0.03736432 -0.06903438 0.034702223 0.057179153 0.05214149 -0.004845251 0.027561406 0.024454353 0.024421526 -0.060765207 -0.07588445 0.032024115 0.023164717 -0.036769774 0.012741545 0.08009458 -0.010179879 0.009021445
한다 0.06317739 0.010993777 0.039990164 0.038674574 0.06272361 0.017750965 -0.031195253 -0.012043261 -0.036174167 -0.04011051 -0.06253532 0.0731701 -0.010788643 0.014085012 -0.056170028 0.061552823 -0.045527957 0.028965129 -0.037178885 -0.029955441 -0.010032777 -0.018652083 -0.011049657 -0.13295086 0.023955295 -0.011562559 -0.049323335 0.032907464 -0.026032567 -0.07042513 -0.01855591 -0.0135380775
때문 0.009322514 -0.0077478024 -0.029231425 0.01914548 0.10104973 0.026784698 -0.043465886 0.014540094 0.023580106 0.06417968 0.04777527 -0.103138514 -0.041006148 0.019163948 0.034729924 -0.023775028 0.014422069 -0.10624261 -0.12161554 0.0015974104 0.025152117 -0.022132365 0.061217844 0.08076186 -0.032147177 0.11017573 0.010557557 -0.07957019 -0.047575563 -0.0047792154 0.019884106 -0.05611378
이나 -0.07160183 0.086495884 0.087497026 -0.033420347 -0.0873581 0.05532147 0.05528072 0.031961184 0.077620365 0.02092225 -0.0020269933 -0.014536142 0.041492723 0.09580156 -0.06255659 -0.08074287 -0.010830158 -0.053141173 0.016009169 -0.016033255 -0.07418378 -0.012244275 -0.02331638 0.042809553 -0.02265619 -0.058653165 0.11301443 -0.08670498 0.085881226 0.059627216 -0.026112389 0.07315592
ㅎㅎ 0.048068054 -0.0586444 0.13265346 0.038705777 0.19087979 0.05964001 -0.011719041 -0.093169756 -0.06220459 -0.07484083 0.038075853 -0.06047131 -0.09399535 -0.07339976 0.02001621 0.03681067 -0.008765324 0.0065971627 -0.098636426 -0.014004087 0.031515885 -0.08513883 -0.0754051 0.1515277 0.118942164 0.10860013 -0.0008503278 0.10211231 -0.039890997 -0.22895621 0.045569368 -0.12300635
요 0.023200981 -0.05199478 0.03476279 0.01814905 0.07741898 0.050263364 0.029247811 0.01062531 -0.01944827 0.013980294 0.05902147 0.0025848348 -0.02519863 -0.1929712 0.07201854 0.0065422724 0.0012681043 0.025399337 -0.004862007 0.02766641 0.0024546678 -0.010218018 -0.037343264 0.21056083 0.11705974 -0.039593138 -0.0108893 0.07516537 -0.07875745 -0.017614562 -0.059216928 -0.07623767
저 0.011550628 -0.12186472 0.009469888 -0.044845283 -0.05298801 0.090427354 -0.07073268 -0.0021122787 -0.108049065 -0.039119776 0.07635537 -0.09653839 -0.062427483 0.021878421 -0.08307527 0.100697756 0.09370438 0.036844976 0.0704535 0.0018814245 -0.045807857 -0.0987842 -0.0070714867 -0.048772424 0.025233807 -0.018996939 -0.0069293836 -0.024071272 0.022209402 0.009206588 -0.13432473 -0.006396569
재 0.054503158 -0.12099115 0.020689907 0.06438215 -0.016522383 0.124337874 -0.045320652 -0.07446888 -0.17080145 -0.062746964 0.11489646 -0.12742934 0.047093857 -0.08411864 0.1396092 0.10561587 0.1285587 0.12629256 -0.030459134 0.06084501 0.047309663 -0.11061374 -0.10682214 0.083351 0.049019568 -0.010462603 -0.080773346 -0.031738456 -0.07830421 -0.057513118 -0.07475446 -0.080649346
꼭 0.033377208 -0.027607517 0.1403864 0.038052183 0.12894267 -0.026755285 -0.043819822 -0.14966951 -0.008693729 -0.29020888 0.010167919 0.10181483 -0.1283585 0.026840001 0.018031426 0.023630287 -0.019228326 0.0046185097 -0.14793602 0.044821482 0.10934024 -0.04777191 -0.13092369 -0.27368104 0.06299484 0.14104636 0.040260855 0.13076468 -0.08922655 -0.11736182 -0.032326773 -0.11202495
랑 0.0699897 0.04499767 0.16371225 0.03031151 -0.06405822 0.03239712 -0.07008289 0.015229894 -0.032631986 0.014666485 0.061269525 -0.055743404 0.026002994 0.02303052 -0.0073342714 -0.012652561 0.010114857 -0.004371357 -0.0128991185 0.03155413 0.021638496 -0.014239989 -0.042987812 -0.03583148 -0.049417574 0.022931 -0.10124582 -0.06588496 0.01868174 0.034829747 -0.12033791 0.06629441
며 0.016552033 -0.034213766 0.11472127 0.045387506 -0.03733779 0.011182307 -0.058270175 -0.045504477 -0.07002895 -0.07382184 0.13396554 -0.0204432 0.05113827 -0.063135244 -0.006512275 -0.018138908 0.049000554 -0.050059404 -0.07982531 0.023718487 0.04349884 0.019832931 0.014339977 0.04442177 -0.0019679482 0.072241746 0.043303214 0.014427077 -0.062756374 0.014806666 -0.01134059 -0.0804433
현실 0.096285164 -0.07896557 0.1617661 0.1001676 0.051171646 0.1326078 -0.1049583 -0.07007217 -0.079349615 -0.10246214 0.092989676 -0.045694277 -0.062686495 -0.028234556 0.06086819 0.06276618 0.12131035 0.07923373 -0.014445466 0.02304285 0.07841703 -0.0962171 -0.048056778 0.0040260754 0.11580291 0.08848358 -0.153099 0.09737271 -0.0048183044 0.0032398608 -0.041625116 -0.014035257
긴 -0.09129013 -0.03539976 -0.03123488 -0.004114367 0.08102845 0.026173031 0.028404756 0.036815967 0.0027154575 -0.038256258 0.017999312 -0.09297654 -0.13181263 0.07685498 -0.13048486 -0.031393886 -0.045223426 0.05259205 0.03166245 -0.15188058 -0.016505927 0.006934567 0.031013593 -0.10961791 -0.10196147 0.14314051 0.027418884 0.030160973 0.12786093 0.004750339 0.026318235 0.13347174
ㅡㅡ -0.08605262 0.044081468 -0.21346578 -0.06889258 -0.057725746 -0.1614454 0.16902824 0.12934391 0.23358113 0.017686322 -0.09909863 0.14102247 0.11611739 -0.025074212 -0.1338977 -0.19231193 -0.12067103 0.02256958 0.096998446 -0.19252978 -0.23918565 0.20415203 0.16325106 -0.11542319 -0.10946625 -0.09708164 0.20671692 -0.08885453 0.04561599 0.18157613 0.010587568 0.0457218
무슨 -0.09888049 0.15855402 -0.078563236 -0.124467686 -0.0614199 -0.1711929 0.10386927 0.12940039 0.09968197 0.06095026 -0.11237324 0.18702911 0.13447724 0.21555585 -0.09432253 -0.17690985 -0.101080164 -0.096552886 0.07320356 -0.12314107 -0.031908628 0.07427763 0.1254487 0.0038270866 -0.056067016 -0.06801241 0.08356902 -0.088499464 0.096427076 0.08009596 0.14007603 0.052262068
내내 0.05279088 0.043763854 -0.06508097 -0.079209164 -0.10337019 -0.034564484 0.021636553 0.034521766 -0.06502546 0.034865603 -0.12506323 0.0003470992 0.18518633 0.045153532 0.095212914 0.009441415 0.007581541 0.114368595 0.08093221 0.11189419 0.013351041 0.050094854 0.01809801 0.027419977 0.021317463 -0.098543234 -0.03511945 -0.093942024 -0.012184354 0.05266419 0.08711146 -0.07643537
결말 0.048575316 -0.07121973 0.115873575 -0.06444089 0.07693735 -0.005817477 0.07060915 -0.12698191 0.052355956 -0.05695732 -0.032924514 0.07623121 -0.010848757 -0.059868407 -0.054892354 0.0128683355 -0.006497358 0.0044929394 -0.028315771 -0.046463497 -0.0399102 -0.006882041 -0.029102229 0.06866275 0.09020902 -0.048152987 0.07432023 0.101556264 -0.10239053 -0.07421917 -0.028635629 -0.009706813
죽 0.00041456963 -0.011031903 0.045325674 -0.061947092 -0.06539584 0.07690191 0.019747231 -0.0031657475 -0.016104486 0.022281481 0.012905765 -0.050340205 -0.04713435 0.005127902 -0.025426943 0.023193082 0.009124073 -0.03888195 0.026509352 -0.02767339 -0.03414123 -0.044831075 -0.023865722 0.025138242 0.035762332 -0.05563429 -0.050295014 -0.035174686 -0.03615905 0.061962113 -0.019340903 0.017920045
남자 -0.008238415 -0.08039436 0.088986255 -0.01725935 0.0742049 -0.0049933325 -0.0077249487 0.01641683 -0.011807678 -0.0067315223 0.020771591 -0.046206098 -0.07886886 -0.10514499 -0.02176425 -0.0033237233 0.05043375 0.033684734 -0.015177339 0.02015058 0.0031579055 -0.05680064 -0.05436378 0.038018566 0.0071747396 0.019501632 -0.0102402745 -0.015606156 0.004754476 0.02527112 -0.05890814 -0.016799163
세요 -0.04602045 -0.030822357 0.004621821 -0.06868609 -0.06889928 -0.034677975 -0.009216996 0.02714251 -0.015379808 -0.019427901 -0.028596949 0.01698467 0.067392014 -0.007815082 -0.01941733 0.026683884 0.0032342717 0.008268095 -0.011246811 -0.058333665 -0.05312347 -0.014466109 -0.037173543 0.031599026 -0.094693325 -0.030068088 -0.00086268614 -0.027637938 0.01674764 0.0015576006 -0.091827355 0.024204556
전개 -0.008319402 0.08566496 0.03311439 -0.016125046 -0.121206865 0.014400748 0.042797986 0.06699364 0.03722995 0.13573892 -0.05207105 0.047770042 0.14066267 0.017852295 -0.024155267 -0.060476664 -0.055255562 -0.010719417 -0.031765193 -0.02147989 -0.11797828 0.09492634 -0.026863469 0.075499155 -0.06437666 -0.056273617 0.06828204 -0.05269652 -0.020893509 0.051675424 0.06862484 -0.006694047
마음 0.08257546 -0.15637664 0.15536126 0.105816126 -0.033928182 0.08652344 -0.11460887 -0.1605001 -0.086263336 -0.184123 0.014321984 -0.12625188 0.024009984 -0.016888127 0.052135855 0.18393134 0.092570305 0.15582225 -0.018572683 0.05728162 0.079578474 -0.07244234 -0.0624671 -0.2583027 0.04633162 -0.028217983 -0.0571955 0.13184316 -0.06896918 -0.14971486 -0.14247094 -0.05358236
소재 -0.08475114 0.11729487 -0.14962378 -0.013342436 0.0053331647 -0.11478113 0.04731538 0.12435033 0.054402806 0.1196456 -0.038927626 0.057304755 0.021664236 0.0034116697 -0.012710593 -0.02769104 -0.08578307 -0.08553484 0.088477455 -0.047975935 -0.009270815 0.08798809 0.04159998 -0.124304675 -0.07101547 -0.04244564 0.0069298944 -0.007803558 0.111430176 0.067675516 -0.0362922 0.13737734
속 0.08156093 0.01633048 -0.028470952 -0.050681714 -0.0011109228 0.019777553 0.0085486 0.0046006464 0.008891549 0.019679721 -0.026388438 0.0101351235 0.0017361599 0.039782926 0.04559558 0.03421805 0.022678772 0.085202836 0.02473063 0.018297382 -0.015949206 -0.020622736 0.03383557 0.07912602 0.03559149 -0.050452624 0.019774465 0.032320336 0.06223266 -0.018127143 0.027226087 -0.06602634
공포 -0.039252535 0.1103762 0.020939557 -0.003917397 -0.14306243 0.012291076 -0.08217315 0.033796888 0.027398221 0.042867318 0.0061598727 -0.032866817 0.06290616 0.10189569 -0.013205041 -0.06301007 0.041175 -0.033468075 0.038925644 0.050307404 -0.015634466 0.005086714 -0.008990185 0.055197436 -0.012197834 0.003609401 0.0042484603 -0.044472415 0.07037292 0.04387543 -0.031429224 -0.022820568
아서 -0.0014843667 -0.024784667 -0.13173139 -0.08287765 0.0031301847 -0.056326218 -0.01855739 0.054785255 -0.028419236 0.08345455 -0.13509028 -0.034689866 0.05997169 0.119017966 0.10734988 0.06200837 0.03624695 0.1201205 0.0071477466 0.003662394 -0.0030502651 -0.04021358 0.03888663 -0.15290545 -0.08713528 -0.1034052 -0.048665673 -0.0381973 0.027134929 0.064487755 -0.022169445 0.06342402
다른 -0.013475066 -0.066918485 -0.040173307 0.023049463 0.059063412 -0.040323064 0.1545561 0.013169818 0.046572927 -0.04493161 0.0137875015 0.112386785 -0.052139226 -0.12437981 0.028080218 0.007376813 -0.06801789 0.021877531 0.07138234 -0.10090943 -0.013132124 -0.0012989749 -0.092321515 -0.10879153 0.09456272 -0.06338789 -0.03288049 0.09800872 -0.044332173 -0.0625226 -0.021828188 -0.0046284418
씨 -0.022322183 0.060861286 -0.009626588 0.04787852 0.0040834397 -0.0053625163 0.019497048 -0.0243584 0.055601448 -0.023604952 -0.026971634 0.10756544 -0.016860394 -0.07940405 -0.0021402254 0.025144123 -0.059332054 0.045524757 0.06814448 -0.01207672 -0.04867125 0.026688747 -0.022977501 -0.016042057 0.06878207 0.002236521 -0.013767124 -0.007778137 -0.048832994 0.053254187 -0.061631415 0.03920236
인생 0.011608276 -0.079716 0.20774822 0.10759458 0.026739256 0.08506012 -0.035350204 -0.25215635 -0.07797011 -0.30340832 0.07641795 -0.006607979 -0.0917587 -0.01608594 -0.03150157 0.018114991 0.095892176 0.002425281 -0.06404655 0.031187762 0.12251317 -0.060506545 -0.14340198 -0.13083175 0.12435651 0.19256003 0.020971103 0.1680078 -0.080797866 -0.14068736 0.07045743 -0.07722825
~~ 0.022774547 0.021997467 0.011543876 0.006672586 -0.07767939 0.04936611 -0.0040446273 0.13735943 -0.0075485036 0.07441717 0.0827904 0.06707361 0.062031873 -0.121727146 0.11654933 0.06810504 0.0040298332 0.011369054 0.064153425 0.064883694 -0.05448187 -0.05501562 -0.08995462 0.0835502 0.082317196 -0.20501995 -0.094155714 -0.00066434965 -0.12524785 0.008911408 -0.07086416 0.02081753
짜증 -0.35195693 0.35057253 -0.32242492 -0.11820265 -0.16141157 -0.124665804 0.09656316 0.34041283 0.25201225 0.24947608 -0.13356137 0.0049969526 0.14392753 0.12215596 -0.26161554 -0.23217753 -0.27751523 -0.29233077 0.19700186 -0.27794504 -0.27394673 0.22817716 0.21128294 0.045465045 -0.3122961 -0.16284968 0.23832309 -0.14426452 0.117202766 0.3143109 0.10307987 0.28611344
짱 0.074151956 -0.1324533 0.09138167 0.12468489 0.30157208 0.13739537 -0.12945981 -0.057528432 -0.050627653 -0.016187377 0.19321585 -0.18107209 -0.23384744 -0.1862366 0.06595372 0.07146811 -0.026603928 0.010593367 -0.16762474 0.088358074 0.019154323 -0.048405044 -0.16312067 -0.015193295 0.097570345 0.037267428 -0.03957649 0.13518353 -0.15460165 -0.05488492 -0.2424917 -0.10837727
뿐 -0.043800037 0.09314308 -0.102846764 -0.03265539 -0.044048518 -0.07067438 0.05420912 0.104070455 -0.007028729 0.0081686145 -0.02853711 -0.041438434 -0.014182982 0.10858319 -0.076511964 -0.07164036 0.021881655 -0.042652097 0.049230188 -0.0692658 0.02224123 0.08809872 0.08000432 0.019886473 -0.0115693025 0.021523342 0.08211323 -0.065484695 0.048938297 0.08490565 0.116538994 0.031498834
은데 0.015492445 -0.035449125 0.1141844 0.07573296 0.028875971 0.08981497 -0.07529665 -0.05620373 -0.045547064 -0.045474563 0.127868 -0.095669754 -0.18480365 0.029369367 0.02737547 0.013672544 0.12822773 -0.0018445762 -0.024663476 -0.045458466 0.03139809 -0.11284076 -0.023666793 -0.04590055 -0.003849575 0.13732207 -0.056883294 0.04353017 0.014190516 0.010705974 -0.078707844 0.0440045
별 -0.01264395 0.031445894 -0.046239305 -0.035611458 -0.08948394 -0.103473976 0.05691433 0.02547656 -0.016240753 0.0542941 -0.1524648 0.025576534 0.10198114 0.13368538 -0.08780246 -0.0021992885 0.0321157 0.058306042 0.115239896 -0.026935961 -0.028536413 0.05147838 0.06932418 -0.02444941 0.086095884 -0.11654458 -0.0015339853 -0.0043823677 0.037084725 0.06389121 0.1161675 0.005111035
아요 0.094486825 -0.15624906 0.11584626 0.08474063 0.074006684 0.006161851 -0.02365808 -0.08634882 0.044274736 -0.04449588 -0.006126785 0.03835546 0.053733863 -0.13014294 0.023046501 0.043518916 0.023149565 0.07199132 -0.031900804 0.03833934 -0.05205486 -0.14315161 -0.100139394 0.13926254 0.08302785 -0.0068929647 -0.103092425 0.11379236 -0.07731832 -0.08538871 -0.11659684 0.006635135
유치 -0.12637112 0.12928978 -0.23231521 -0.15392897 -0.19937773 -0.18731722 0.104309134 0.066163436 0.03961204 0.12336659 -0.1684491 0.03457661 0.14804825 0.24975656 -0.18854432 -0.09299526 -0.03925524 0.0058271643 0.1482293 -0.047851287 -0.031673867 0.06882913 0.17395617 0.041330427 -0.11805292 -0.11634979 0.08866678 -0.1061117 0.28949362 0.091869526 0.23495151 0.18114592
가장 -0.009685714 -0.043034147 0.024253353 -0.07645977 -0.034119707 0.057608556 -0.05066653 -0.043902725 -0.04917999 -0.088324234 -0.03237104 -0.10655288 0.11128617 0.09783875 -0.0042664455 0.091460526 0.09310064 0.08636616 0.066161826 0.037409995 0.022995027 -0.02914746 0.035494685 0.0851326 0.033106044 0.056106474 -0.0034985708 -0.027774733 0.112534516 0.0066453163 0.07298926 -0.08521881
필요 0.037125483 -0.17216934 -0.0070430934 -0.15939936 0.3754664 0.10767172 0.06596042 -0.190739 -0.012052213 -0.019345172 0.21624263 0.09685679 -0.3076531 -0.28657347 0.016864229 0.09300932 0.016240599 0.06997918 -0.030057415 -0.07835496 -0.008997216 -0.09513762 -0.046089906 -0.12048561 0.045088228 0.13529494 0.014941116 0.21813563 0.0037038305 -0.19370706 -0.16971831 -0.008639172
음악 -0.0011253715 -0.11744278 -0.030605244 0.09047245 0.035399105 0.042497676 0.007922113 -0.068282254 -0.07746994 -0.15024559 0.08275196 0.049604736 -0.12299571 -0.030715752 0.05563205 0.039010447 0.14837871 0.13514243 0.04184864 0.013723529 0.076084934 -0.10529328 -0.016710293 -0.08829932 0.09873068 0.09538789 -0.084378585 0.086276 0.051947754 -0.17564653 -0.006108066 0.039788283
) 0.042804144 -0.05039035 0.067605816 -0.012100653 -0.01899304 -0.0051884414 -0.04965507 -0.08100247 -0.045145266 -0.0006288105 -0.0050540026 0.018961286 0.015093497 -0.06547124 0.022083683 0.0911332 -0.015907856 0.058546934 0.014046508 0.072977684 0.04150706 -0.0032419579 -0.090159275 -0.005085789 0.015511119 -0.039214432 -0.027266901 0.011437155 -0.0022887965 -0.06176287 -0.021238063 -0.029348625
일본 -0.050377116 0.015439389 0.045086674 -0.08329508 -0.04856899 -0.09552124 0.012679691 -0.0038224703 0.07709034 0.02231719 -0.021234618 0.120900184 0.0373208 0.018944638 -0.034282282 -0.05663589 -0.12713747 -0.10405865 -0.0466062 -0.097297624 -0.022309732 0.05418952 0.03476821 0.06063859 0.007052686 0.009302119 0.03334451 0.025842413 0.016506275 -0.04643667 0.092385784 0.033980414
낮 0.15194093 -0.293295 0.17389247 0.068024054 0.15760835 0.08914942 -0.040268242 -0.25318864 0.09956896 -0.27007225 0.09512364 -0.028198544 -0.095053226 -0.28939092 0.027697971 0.13931882 0.08522533 0.24758561 -0.11417943 0.052123252 -0.014114887 -0.093234144 -0.082898974 0.18228817 0.2560372 0.02484453 -0.059192598 0.2826216 -0.2018487 -0.18968259 -0.3135179 -0.20582251
아이 0.025963048 0.019511031 -0.051097013 0.034770902 0.14025289 -0.040518936 0.07571467 0.031577535 0.07287276 -0.009896969 -0.018071756 0.07083919 -0.06348987 -0.07694435 0.06292179 0.006040057 -0.06195253 0.024830878 -0.025008604 -0.059102178 -0.025231317 0.057831395 -0.09592101 -0.06243467 0.031918865 -0.09668661 0.039172277 0.05132612 -0.0942668 -0.017441822 -0.02270104 -0.0366252
;; -0.015032678 -0.0045337416 -0.14362508 -0.042958166 0.036790784 -0.08649088 0.055718366 -0.0006477946 0.12721471 -0.04267075 -0.06623307 0.01409426 0.06308404 0.09291505 -0.050974395 -0.064053245 -0.15000542 0.0083869705 -0.03020595 -0.018624077 -0.0658594 0.1422604 0.09023458 -0.060556978 0.011857697 -0.1402804 0.12732911 -0.079525396 -0.008201025 0.07509009 0.02103704 -0.009295914
오 0.083211325 -0.062218696 0.046533413 -0.0075915484 -0.0698662 0.05054089 -0.05699433 -0.04242453 0.011932283 -0.003472581 0.013435619 -0.038910855 -0.010266261 0.0070310966 0.029564057 -0.0016647971 0.06416881 0.11576498 0.027713666 -0.011860995 0.00932944 -0.017703976 0.026288865 0.0034695081 0.092773154 0.009389291 0.033030957 0.0586208 -0.0030828498 -0.075671606 -0.059537336 -0.07614829
반전 -0.017597161 -0.0073524504 -0.116592586 0.01130137 -0.0373641 0.002776099 -0.054382455 0.005290385 -0.07994302 -0.05317802 -0.03573906 -0.061043948 0.041975673 0.10197239 0.046696693 0.056295764 0.08929073 0.071261056 0.011907649 0.15216863 0.1434099 -0.011337947 0.021108573 -0.08481168 0.006761985 0.040794197 -0.07971158 0.006834558 0.02847091 -0.004999831 0.0608749 -0.0326147
수준 -0.026199419 0.09869275 -0.057936348 -0.059665143 -0.0635772 -0.09023892 0.07411232 0.10583672 0.2153743 0.1780854 -0.118189946 0.13518496 0.10048425 0.068968594 -0.058191948 -0.17785467 -0.1415274 -0.116444744 0.10790818 -0.09640854 -0.16760558 0.101525635 0.0867365 0.0013018085 -0.06769338 -0.0884924 0.10970547 -0.046348527 0.07421271 0.14761223 0.025479713 0.14453298
다니 -0.033097215 0.017432898 -0.040996622 0.0796352 0.096055046 -0.090304874 0.08709043 -0.00372043 0.016348477 0.045037955 -0.015539864 0.1033738 -0.024178183 -0.15211825 0.02074768 -0.01891603 -0.044668004 0.048411686 0.0063205627 -0.103661425 -0.014052732 0.03557122 0.056850705 -0.15360428 0.00897 -0.02620368 0.05952152 0.112176694 -0.007820192 -0.11886555 0.043993503 0.05163352
웃 -0.02580185 -0.1590468 0.025449038 -0.032631543 0.086055115 0.14608847 -0.0024039987 0.023524093 -0.07118559 -0.05384212 0.07086011 -0.16048364 -0.09000318 -0.006186523 -0.03080367 0.054496832 0.09572409 0.006081828 -0.087911926 -0.02022607 0.0011006069 -0.10344367 -0.052851915 0.0018966533 -0.034605306 0.08925003 -0.03380092 0.01269383 0.030474912 -0.11668925 -0.022545576 0.035180695
매력 0.056077123 -0.036538184 0.062174484 0.039443806 -0.16665573 0.1269756 -0.14655003 -0.022819962 -0.15135074 0.0007562374 0.07929214 -0.23743856 -0.012442167 0.09291389 0.027956845 0.033566322 0.1678622 0.032565765 -0.04187409 0.11164845 0.11234647 -0.024822805 -0.03546511 -0.1273837 0.00894345 0.08033237 -0.04350385 -0.06940595 -0.0073771602 0.03250815 -0.116598256 -0.058785312
맞 -0.027929563 0.0739307 0.025596472 -0.012940305 -0.04844674 -0.014612424 0.0015739688 0.06331502 0.060269088 0.11595392 0.0013603388 0.028673623 0.07917566 -0.035955112 -0.041912727 0.015983813 -0.088608585 -0.03526809 -0.019272186 -0.025365785 -0.03888171 0.016533928 0.0047015618 0.006475297 0.0012429286 -0.12596762 -0.020742776 -0.1076425 -0.04442608 0.13544294 -0.06666042 0.06815777
인지 0.040797297 0.021853073 -0.13267355 -0.02590155 0.0066099195 -0.061190523 0.03017286 0.06878089 0.02477532 0.048701182 0.045141537 0.045133106 -0.017964564 -0.026988778 0.024636062 0.033106547 -0.072123714 0.010468432 0.0024647333 -0.047487933 -0.014300008 0.018694272 -0.009409547 0.010156929 0.041291855 -0.14415097 0.05185238 0.000993166 -0.028171076 0.04104124 0.004214802 -0.06534678
가슴 0.10098418 -0.036777705 0.21005362 0.16135849 0.054709297 0.11601469 -0.119894065 -0.060616452 -0.08483664 -0.0067344294 0.14433149 -0.052268155 0.03926518 -0.1832314 0.030177401 0.04236205 0.05490195 0.08670075 -0.1336897 0.10696017 0.090661146 -0.14040686 -0.19460511 0.008607728 0.13841584 0.031390738 -0.14372692 0.124731265 -0.10477802 -0.07563492 -0.25042284 -0.10345853
없이 -0.079496086 -0.055697925 -0.111245 -0.13594005 0.066854425 -0.005895563 0.0032418428 -0.007534036 -0.07143799 -0.012285999 0.010811859 -0.10206444 -0.08169661 0.077802636 -0.06816565 0.03345898 0.045190837 0.0151082855 0.048555672 -0.050464697 -0.029305015 0.038388085 0.04081255 -0.02593265 -0.075952746 0.06016109 0.12513238 -0.015534701 0.107132785 -0.052408542 0.043759286 0.048984736
원작 0.02074656 -0.005626807 -0.024871562 -0.09220657 0.056455117 -0.059168555 -0.004878644 0.05233206 0.07356858 0.06809113 -0.011323067 -0.027707547 -0.05866796 0.013129291 -0.018492972 -0.13130686 -0.084024295 -0.07285936 -0.0022098161 -0.067593545 -0.0947019 0.069562785 0.031853065 0.038221873 -0.05575713 0.020328918 0.10362033 -0.04096959 0.09166256 -0.015759217 0.068146184 0.0215524
ㄷ 0.076873936 0.006173902 0.045527287 0.07097545 -0.011673074 0.033133946 0.0055405935 -0.0785158 0.0022896635 0.015347158 -0.010653009 -0.028476203 -0.020849528 -0.01849882 -0.00096456247 -0.010910164 -0.035016093 0.014595466 -0.0057117995 0.018347373 0.029798165 0.02342265 -0.055240918 -0.06163605 0.0073357094 0.030239962 -0.04302625 0.025620088 0.011774784 -0.061372023 -0.009378476 0.036158815
인간 -0.008509021 -0.08306408 0.09207843 0.11874258 0.19647352 0.0611686 -0.08288515 -0.12368142 0.012058584 -0.10455058 0.04154208 -0.02653689 -0.15263961 -0.0625512 -0.030945048 0.039348494 -0.032350425 -0.0043283748 0.035903677 -0.037118074 0.06358624 -0.06687556 -0.011217261 -0.17854036 0.007577334 0.10533423 -0.023428077 0.14581914 -0.007391183 -0.10720172 -0.124514975 0.013305286
데 -0.014712371 -0.0120968325 0.0034126379 0.050309483 0.036653396 0.02665967 -0.06676381 -0.053369414 -0.009182837 0.0021305287 0.07041645 -0.0055716652 -0.04035794 0.051241625 0.0184829 0.011998321 -0.06355113 -0.027650556 -0.051781505 -0.023202566 0.014892672 -0.0044797407 0.04101303 -0.070930496 -0.05917045 -0.01477259 0.048203614 -0.00051442394 0.044713788 0.007781699 0.1023865 0.061501987
굿 0.18242005 -0.14210337 0.18524922 0.11838368 0.11839614 0.21977535 -0.2070731 -0.27756256 -0.17174965 -0.20941964 0.09493721 -0.18097879 -0.044044055 -0.06748776 0.1345319 0.17274025 0.12241936 0.13284916 -0.18874511 0.1435969 0.16666202 -0.11825036 -0.16110478 0.050537523 0.11617701 0.11125826 -0.15017697 0.16411096 -0.13684419 -0.2173321 -0.10283226 -0.21742216
ㅠ 0.041655082 -0.098258674 0.08214864 0.09394488 0.14022921 0.094444275 -0.0359477 -0.08022082 0.023138821 -0.01698776 0.051524203 -0.044539273 -0.08110864 -0.048799247 0.0036470394 0.0068767252 -0.05045145 0.03673957 -0.03191958 -0.0424406 -0.054208014 -0.06393756 -0.062305428 0.14747001 0.044418775 0.041460898 -0.015036207 0.101389326 -0.044983197 -0.027786411 0.002853277 -0.04433921
높 -0.13511963 0.045604106 -0.17690155 -0.19221617 -0.068019345 -0.04350079 -0.00055423175 0.1599189 -0.04021608 0.056324262 -0.05114794 -0.030495405 0.041359812 0.18295544 -0.046565548 0.02301377 -0.10129547 -0.15708588 0.062076643 -0.027475229 -0.019406907 0.047688 0.025991086 -0.12847097 -0.26025522 -0.09707715 0.091917545 -0.16541184 0.10503225 0.15011859 0.17091435 0.027068987
밋 -0.009600616 -0.12499295 0.04383103 0.16805919 0.08915262 0.14329642 -0.007960489 -0.052413467 -0.044906422 -0.04798215 0.03674719 -0.0241031 -0.1556411 -0.0776385 0.0009848722 0.08919864 0.055163592 0.0838238 0.036413096 0.008919772 0.015857592 -0.12212256 -0.07597086 -0.1887771 0.07861669 -0.009685489 -0.09043552 0.057621602 -0.030867428 0.021964993 -0.046771657 -0.020988032
